digraph Tree {
node [shape=box, style="filled, rounded", color="black", fontname=helvetica] ;
edge [fontname=helvetica] ;
0 [label=<X<SUB>353</SUB> &le; 0.832<br/>gini = 0.454<br/>samples = 5240<br/>value = [3416, 1824]<br/>class = cane>, fillcolor="#f3c4a3"] ;
1 [label=<X<SUB>39392</SUB> &le; 0.389<br/>gini = 0.413<br/>samples = 3830<br/>value = [2712, 1118]<br/>class = cane>, fillcolor="#f0b58b"] ;
0 -> 1 [labeldistance=2.5, labelangle=45, headlabel="True"] ;
2 [label=<X<SUB>49726</SUB> &le; 0.437<br/>gini = 0.458<br/>samples = 2332<br/>value = [1505, 827]<br/>class = cane>, fillcolor="#f3c6a6"] ;
1 -> 2 ;
3 [label=<X<SUB>33720</SUB> &le; 0.283<br/>gini = 0.392<br/>samples = 1320<br/>value = [967, 353]<br/>class = cane>, fillcolor="#eeaf81"] ;
2 -> 3 ;
4 [label=<X<SUB>52891</SUB> &le; 0.319<br/>gini = 0.496<br/>samples = 321<br/>value = [175, 146]<br/>class = cane>, fillcolor="#fbeade"] ;
3 -> 4 ;
5 [label=<X<SUB>25878</SUB> &le; 0.781<br/>gini = 0.418<br/>samples = 178<br/>value = [125, 53]<br/>class = cane>, fillcolor="#f0b68d"] ;
4 -> 5 ;
6 [label=<X<SUB>33270</SUB> &le; 0.284<br/>gini = 0.344<br/>samples = 154<br/>value = [120, 34]<br/>class = cane>, fillcolor="#eca571"] ;
5 -> 6 ;
7 [label=<X<SUB>55150</SUB> &le; 0.718<br/>gini = 0.275<br/>samples = 140<br/>value = [117, 23]<br/>class = cane>, fillcolor="#ea9a60"] ;
6 -> 7 ;
8 [label=<X<SUB>49269</SUB> &le; 0.006<br/>gini = 0.213<br/>samples = 132<br/>value = [116, 16]<br/>class = cane>, fillcolor="#e99254"] ;
7 -> 8 ;
9 [label=<gini = 0.0<br/>samples = 5<br/>value = [0, 5]<br/>class = cavallo>, fillcolor="#399de5"] ;
8 -> 9 ;
10 [label=<X<SUB>18534</SUB> &le; 0.873<br/>gini = 0.158<br/>samples = 127<br/>value = [116, 11]<br/>class = cane>, fillcolor="#e78d4c"] ;
8 -> 10 ;
11 [label=<X<SUB>27273</SUB> &le; 0.861<br/>gini = 0.108<br/>samples = 122<br/>value = [115, 7]<br/>class = cane>, fillcolor="#e78945"] ;
10 -> 11 ;
12 [label=<X<SUB>30833</SUB> &le; 0.734<br/>gini = 0.065<br/>samples = 118<br/>value = [114, 4]<br/>class = cane>, fillcolor="#e68540"] ;
11 -> 12 ;
13 [label=<X<SUB>42113</SUB> &le; 0.001<br/>gini = 0.034<br/>samples = 116<br/>value = [114, 2]<br/>class = cane>, fillcolor="#e5833c"] ;
12 -> 13 ;
14 [label=<gini = 0.0<br/>samples = 1<br/>value = [0, 1]<br/>class = cavallo>, fillcolor="#399de5"] ;
13 -> 14 ;
15 [label=<X<SUB>50176</SUB> &le; 0.449<br/>gini = 0.017<br/>samples = 115<br/>value = [114, 1]<br/>class = cane>, fillcolor="#e5823b"] ;
13 -> 15 ;
16 [label=<gini = 0.0<br/>samples = 114<br/>value = [114, 0]<br/>class = cane>, fillcolor="#e58139"] ;
15 -> 16 ;
17 [label=<gini = 0.0<br/>samples = 1<br/>value = [0, 1]<br/>class = cavallo>, fillcolor="#399de5"] ;
15 -> 17 ;
18 [label=<gini = 0.0<br/>samples = 2<br/>value = [0, 2]<br/>class = cavallo>, fillcolor="#399de5"] ;
12 -> 18 ;
19 [label=<X<SUB>64150</SUB> &le; 0.658<br/>gini = 0.375<br/>samples = 4<br/>value = [1, 3]<br/>class = cavallo>, fillcolor="#7bbeee"] ;
11 -> 19 ;
20 [label=<gini = 0.0<br/>samples = 3<br/>value = [0, 3]<br/>class = cavallo>, fillcolor="#399de5"] ;
19 -> 20 ;
21 [label=<gini = 0.0<br/>samples = 1<br/>value = [1, 0]<br/>class = cane>, fillcolor="#e58139"] ;
19 -> 21 ;
22 [label=<X<SUB>44916</SUB> &le; 0.101<br/>gini = 0.32<br/>samples = 5<br/>value = [1, 4]<br/>class = cavallo>, fillcolor="#6ab6ec"] ;
10 -> 22 ;
23 [label=<gini = 0.0<br/>samples = 1<br/>value = [1, 0]<br/>class = cane>, fillcolor="#e58139"] ;
22 -> 23 ;
24 [label=<gini = 0.0<br/>samples = 4<br/>value = [0, 4]<br/>class = cavallo>, fillcolor="#399de5"] ;
22 -> 24 ;
25 [label=<X<SUB>35144</SUB> &le; 0.441<br/>gini = 0.219<br/>samples = 8<br/>value = [1, 7]<br/>class = cavallo>, fillcolor="#55abe9"] ;
7 -> 25 ;
26 [label=<gini = 0.0<br/>samples = 7<br/>value = [0, 7]<br/>class = cavallo>, fillcolor="#399de5"] ;
25 -> 26 ;
27 [label=<gini = 0.0<br/>samples = 1<br/>value = [1, 0]<br/>class = cane>, fillcolor="#e58139"] ;
25 -> 27 ;
28 [label=<X<SUB>39072</SUB> &le; 0.559<br/>gini = 0.337<br/>samples = 14<br/>value = [3, 11]<br/>class = cavallo>, fillcolor="#6fb8ec"] ;
6 -> 28 ;
29 [label=<gini = 0.0<br/>samples = 11<br/>value = [0, 11]<br/>class = cavallo>, fillcolor="#399de5"] ;
28 -> 29 ;
30 [label=<gini = 0.0<br/>samples = 3<br/>value = [3, 0]<br/>class = cane>, fillcolor="#e58139"] ;
28 -> 30 ;
31 [label=<X<SUB>53035</SUB> &le; 0.494<br/>gini = 0.33<br/>samples = 24<br/>value = [5, 19]<br/>class = cavallo>, fillcolor="#6db7ec"] ;
5 -> 31 ;
32 [label=<gini = 0.0<br/>samples = 19<br/>value = [0, 19]<br/>class = cavallo>, fillcolor="#399de5"] ;
31 -> 32 ;
33 [label=<gini = 0.0<br/>samples = 5<br/>value = [5, 0]<br/>class = cane>, fillcolor="#e58139"] ;
31 -> 33 ;
34 [label=<X<SUB>39293</SUB> &le; 0.316<br/>gini = 0.455<br/>samples = 143<br/>value = [50, 93]<br/>class = cavallo>, fillcolor="#a3d2f3"] ;
4 -> 34 ;
35 [label=<X<SUB>29454</SUB> &le; 0.092<br/>gini = 0.283<br/>samples = 88<br/>value = [15, 73]<br/>class = cavallo>, fillcolor="#62b1ea"] ;
34 -> 35 ;
36 [label=<gini = 0.0<br/>samples = 6<br/>value = [6, 0]<br/>class = cane>, fillcolor="#e58139"] ;
35 -> 36 ;
37 [label=<X<SUB>45839</SUB> &le; 0.709<br/>gini = 0.195<br/>samples = 82<br/>value = [9, 73]<br/>class = cavallo>, fillcolor="#51a9e8"] ;
35 -> 37 ;
38 [label=<X<SUB>43839</SUB> &le; 0.64<br/>gini = 0.12<br/>samples = 78<br/>value = [5, 73]<br/>class = cavallo>, fillcolor="#47a4e7"] ;
37 -> 38 ;
39 [label=<X<SUB>56363</SUB> &le; 0.025<br/>gini = 0.027<br/>samples = 73<br/>value = [1, 72]<br/>class = cavallo>, fillcolor="#3c9ee5"] ;
38 -> 39 ;
40 [label=<gini = 0.0<br/>samples = 1<br/>value = [1, 0]<br/>class = cane>, fillcolor="#e58139"] ;
39 -> 40 ;
41 [label=<gini = 0.0<br/>samples = 72<br/>value = [0, 72]<br/>class = cavallo>, fillcolor="#399de5"] ;
39 -> 41 ;
42 [label=<X<SUB>49171</SUB> &le; 0.729<br/>gini = 0.32<br/>samples = 5<br/>value = [4, 1]<br/>class = cane>, fillcolor="#eca06a"] ;
38 -> 42 ;
43 [label=<gini = 0.0<br/>samples = 4<br/>value = [4, 0]<br/>class = cane>, fillcolor="#e58139"] ;
42 -> 43 ;
44 [label=<gini = 0.0<br/>samples = 1<br/>value = [0, 1]<br/>class = cavallo>, fillcolor="#399de5"] ;
42 -> 44 ;
45 [label=<gini = 0.0<br/>samples = 4<br/>value = [4, 0]<br/>class = cane>, fillcolor="#e58139"] ;
37 -> 45 ;
46 [label=<X<SUB>55873</SUB> &le; 0.582<br/>gini = 0.463<br/>samples = 55<br/>value = [35, 20]<br/>class = cane>, fillcolor="#f4c9aa"] ;
34 -> 46 ;
47 [label=<X<SUB>28706</SUB> &le; 0.077<br/>gini = 0.308<br/>samples = 42<br/>value = [34, 8]<br/>class = cane>, fillcolor="#eb9f68"] ;
46 -> 47 ;
48 [label=<X<SUB>10261</SUB> &le; 0.127<br/>gini = 0.375<br/>samples = 8<br/>value = [2, 6]<br/>class = cavallo>, fillcolor="#7bbeee"] ;
47 -> 48 ;
49 [label=<gini = 0.0<br/>samples = 2<br/>value = [2, 0]<br/>class = cane>, fillcolor="#e58139"] ;
48 -> 49 ;
50 [label=<gini = 0.0<br/>samples = 6<br/>value = [0, 6]<br/>class = cavallo>, fillcolor="#399de5"] ;
48 -> 50 ;
51 [label=<X<SUB>41900</SUB> &le; 0.021<br/>gini = 0.111<br/>samples = 34<br/>value = [32, 2]<br/>class = cane>, fillcolor="#e78945"] ;
47 -> 51 ;
52 [label=<gini = 0.0<br/>samples = 2<br/>value = [0, 2]<br/>class = cavallo>, fillcolor="#399de5"] ;
51 -> 52 ;
53 [label=<gini = 0.0<br/>samples = 32<br/>value = [32, 0]<br/>class = cane>, fillcolor="#e58139"] ;
51 -> 53 ;
54 [label=<X<SUB>1921</SUB> &le; 0.721<br/>gini = 0.142<br/>samples = 13<br/>value = [1, 12]<br/>class = cavallo>, fillcolor="#49a5e7"] ;
46 -> 54 ;
55 [label=<gini = 0.0<br/>samples = 12<br/>value = [0, 12]<br/>class = cavallo>, fillcolor="#399de5"] ;
54 -> 55 ;
56 [label=<gini = 0.0<br/>samples = 1<br/>value = [1, 0]<br/>class = cane>, fillcolor="#e58139"] ;
54 -> 56 ;
57 [label=<X<SUB>10257</SUB> &le; 0.401<br/>gini = 0.329<br/>samples = 999<br/>value = [792, 207]<br/>class = cane>, fillcolor="#eca26d"] ;
3 -> 57 ;
58 [label=<X<SUB>48877</SUB> &le; 0.503<br/>gini = 0.452<br/>samples = 325<br/>value = [213, 112]<br/>class = cane>, fillcolor="#f3c3a1"] ;
57 -> 58 ;
59 [label=<X<SUB>63215</SUB> &le; 0.056<br/>gini = 0.382<br/>samples = 241<br/>value = [179, 62]<br/>class = cane>, fillcolor="#eead7e"] ;
58 -> 59 ;
60 [label=<gini = 0.0<br/>samples = 13<br/>value = [0, 13]<br/>class = cavallo>, fillcolor="#399de5"] ;
59 -> 60 ;
61 [label=<X<SUB>38798</SUB> &le; 0.026<br/>gini = 0.337<br/>samples = 228<br/>value = [179, 49]<br/>class = cane>, fillcolor="#eca36f"] ;
59 -> 61 ;
62 [label=<gini = 0.0<br/>samples = 9<br/>value = [0, 9]<br/>class = cavallo>, fillcolor="#399de5"] ;
61 -> 62 ;
63 [label=<X<SUB>30305</SUB> &le; 0.797<br/>gini = 0.299<br/>samples = 219<br/>value = [179, 40]<br/>class = cane>, fillcolor="#eb9d65"] ;
61 -> 63 ;
64 [label=<X<SUB>38885</SUB> &le; 0.012<br/>gini = 0.259<br/>samples = 209<br/>value = [177, 32]<br/>class = cane>, fillcolor="#ea985d"] ;
63 -> 64 ;
65 [label=<gini = 0.0<br/>samples = 5<br/>value = [0, 5]<br/>class = cavallo>, fillcolor="#399de5"] ;
64 -> 65 ;
66 [label=<X<SUB>1352</SUB> &le; 0.992<br/>gini = 0.23<br/>samples = 204<br/>value = [177, 27]<br/>class = cane>, fillcolor="#e99457"] ;
64 -> 66 ;
67 [label=<X<SUB>49283</SUB> &le; 0.008<br/>gini = 0.204<br/>samples = 200<br/>value = [177, 23]<br/>class = cane>, fillcolor="#e89153"] ;
66 -> 67 ;
68 [label=<X<SUB>2074</SUB> &le; 0.304<br/>gini = 0.408<br/>samples = 7<br/>value = [2, 5]<br/>class = cavallo>, fillcolor="#88c4ef"] ;
67 -> 68 ;
69 [label=<gini = 0.0<br/>samples = 5<br/>value = [0, 5]<br/>class = cavallo>, fillcolor="#399de5"] ;
68 -> 69 ;
70 [label=<gini = 0.0<br/>samples = 2<br/>value = [2, 0]<br/>class = cane>, fillcolor="#e58139"] ;
68 -> 70 ;
71 [label=<X<SUB>11155</SUB> &le; 0.671<br/>gini = 0.169<br/>samples = 193<br/>value = [175, 18]<br/>class = cane>, fillcolor="#e88e4d"] ;
67 -> 71 ;
72 [label=<X<SUB>18115</SUB> &le; 0.891<br/>gini = 0.145<br/>samples = 190<br/>value = [175, 15]<br/>class = cane>, fillcolor="#e78c4a"] ;
71 -> 72 ;
73 [label=<X<SUB>16851</SUB> &le; 0.951<br/>gini = 0.121<br/>samples = 186<br/>value = [174, 12]<br/>class = cane>, fillcolor="#e78a47"] ;
72 -> 73 ;
74 [label=<X<SUB>63197</SUB> &le; 0.039<br/>gini = 0.094<br/>samples = 182<br/>value = [173, 9]<br/>class = cane>, fillcolor="#e68843"] ;
73 -> 74 ;
75 [label=<gini = 0.0<br/>samples = 2<br/>value = [0, 2]<br/>class = cavallo>, fillcolor="#399de5"] ;
74 -> 75 ;
76 [label=<X<SUB>35303</SUB> &le; 0.002<br/>gini = 0.075<br/>samples = 180<br/>value = [173, 7]<br/>class = cane>, fillcolor="#e68641"] ;
74 -> 76 ;
77 [label=<X<SUB>40150</SUB> &le; 0.445<br/>gini = 0.444<br/>samples = 3<br/>value = [1, 2]<br/>class = cavallo>, fillcolor="#9ccef2"] ;
76 -> 77 ;
78 [label=<gini = 0.0<br/>samples = 2<br/>value = [0, 2]<br/>class = cavallo>, fillcolor="#399de5"] ;
77 -> 78 ;
79 [label=<gini = 0.0<br/>samples = 1<br/>value = [1, 0]<br/>class = cane>, fillcolor="#e58139"] ;
77 -> 79 ;
80 [label=<X<SUB>47165</SUB> &le; 0.007<br/>gini = 0.055<br/>samples = 177<br/>value = [172, 5]<br/>class = cane>, fillcolor="#e6853f"] ;
76 -> 80 ;
81 [label=<X<SUB>56307</SUB> &le; 0.215<br/>gini = 0.444<br/>samples = 3<br/>value = [1, 2]<br/>class = cavallo>, fillcolor="#9ccef2"] ;
80 -> 81 ;
82 [label=<gini = 0.0<br/>samples = 1<br/>value = [1, 0]<br/>class = cane>, fillcolor="#e58139"] ;
81 -> 82 ;
83 [label=<gini = 0.0<br/>samples = 2<br/>value = [0, 2]<br/>class = cavallo>, fillcolor="#399de5"] ;
81 -> 83 ;
84 [label=<X<SUB>4651</SUB> &le; 0.985<br/>gini = 0.034<br/>samples = 174<br/>value = [171, 3]<br/>class = cane>, fillcolor="#e5833c"] ;
80 -> 84 ;
85 [label=<X<SUB>25140</SUB> &le; 0.022<br/>gini = 0.023<br/>samples = 173<br/>value = [171, 2]<br/>class = cane>, fillcolor="#e5823b"] ;
84 -> 85 ;
86 [label=<gini = 0.0<br/>samples = 1<br/>value = [0, 1]<br/>class = cavallo>, fillcolor="#399de5"] ;
85 -> 86 ;
87 [label=<X<SUB>48026</SUB> &le; 0.0<br/>gini = 0.012<br/>samples = 172<br/>value = [171, 1]<br/>class = cane>, fillcolor="#e5823a"] ;
85 -> 87 ;
88 [label=<gini = 0.0<br/>samples = 1<br/>value = [0, 1]<br/>class = cavallo>, fillcolor="#399de5"] ;
87 -> 88 ;
89 [label=<gini = 0.0<br/>samples = 171<br/>value = [171, 0]<br/>class = cane>, fillcolor="#e58139"] ;
87 -> 89 ;
90 [label=<gini = 0.0<br/>samples = 1<br/>value = [0, 1]<br/>class = cavallo>, fillcolor="#399de5"] ;
84 -> 90 ;
91 [label=<X<SUB>3099</SUB> &le; 0.15<br/>gini = 0.375<br/>samples = 4<br/>value = [1, 3]<br/>class = cavallo>, fillcolor="#7bbeee"] ;
73 -> 91 ;
92 [label=<gini = 0.0<br/>samples = 1<br/>value = [1, 0]<br/>class = cane>, fillcolor="#e58139"] ;
91 -> 92 ;
93 [label=<gini = 0.0<br/>samples = 3<br/>value = [0, 3]<br/>class = cavallo>, fillcolor="#399de5"] ;
91 -> 93 ;
94 [label=<X<SUB>35539</SUB> &le; 0.203<br/>gini = 0.375<br/>samples = 4<br/>value = [1, 3]<br/>class = cavallo>, fillcolor="#7bbeee"] ;
72 -> 94 ;
95 [label=<gini = 0.0<br/>samples = 1<br/>value = [1, 0]<br/>class = cane>, fillcolor="#e58139"] ;
94 -> 95 ;
96 [label=<gini = 0.0<br/>samples = 3<br/>value = [0, 3]<br/>class = cavallo>, fillcolor="#399de5"] ;
94 -> 96 ;
97 [label=<gini = 0.0<br/>samples = 3<br/>value = [0, 3]<br/>class = cavallo>, fillcolor="#399de5"] ;
71 -> 97 ;
98 [label=<gini = 0.0<br/>samples = 4<br/>value = [0, 4]<br/>class = cavallo>, fillcolor="#399de5"] ;
66 -> 98 ;
99 [label=<X<SUB>49215</SUB> &le; 0.137<br/>gini = 0.32<br/>samples = 10<br/>value = [2, 8]<br/>class = cavallo>, fillcolor="#6ab6ec"] ;
63 -> 99 ;
100 [label=<gini = 0.0<br/>samples = 2<br/>value = [2, 0]<br/>class = cane>, fillcolor="#e58139"] ;
99 -> 100 ;
101 [label=<gini = 0.0<br/>samples = 8<br/>value = [0, 8]<br/>class = cavallo>, fillcolor="#399de5"] ;
99 -> 101 ;
102 [label=<X<SUB>26434</SUB> &le; 0.405<br/>gini = 0.482<br/>samples = 84<br/>value = [34, 50]<br/>class = cavallo>, fillcolor="#c0e0f7"] ;
58 -> 102 ;
103 [label=<X<SUB>37096</SUB> &le; 0.079<br/>gini = 0.198<br/>samples = 36<br/>value = [4, 32]<br/>class = cavallo>, fillcolor="#52a9e8"] ;
102 -> 103 ;
104 [label=<gini = 0.0<br/>samples = 4<br/>value = [4, 0]<br/>class = cane>, fillcolor="#e58139"] ;
103 -> 104 ;
105 [label=<gini = 0.0<br/>samples = 32<br/>value = [0, 32]<br/>class = cavallo>, fillcolor="#399de5"] ;
103 -> 105 ;
106 [label=<X<SUB>54731</SUB> &le; 0.319<br/>gini = 0.469<br/>samples = 48<br/>value = [30, 18]<br/>class = cane>, fillcolor="#f5cdb0"] ;
102 -> 106 ;
107 [label=<X<SUB>9845</SUB> &le; 0.067<br/>gini = 0.245<br/>samples = 14<br/>value = [2, 12]<br/>class = cavallo>, fillcolor="#5aade9"] ;
106 -> 107 ;
108 [label=<gini = 0.0<br/>samples = 2<br/>value = [2, 0]<br/>class = cane>, fillcolor="#e58139"] ;
107 -> 108 ;
109 [label=<gini = 0.0<br/>samples = 12<br/>value = [0, 12]<br/>class = cavallo>, fillcolor="#399de5"] ;
107 -> 109 ;
110 [label=<X<SUB>43850</SUB> &le; 0.145<br/>gini = 0.291<br/>samples = 34<br/>value = [28, 6]<br/>class = cane>, fillcolor="#eb9c63"] ;
106 -> 110 ;
111 [label=<X<SUB>8622</SUB> &le; 0.665<br/>gini = 0.48<br/>samples = 10<br/>value = [4, 6]<br/>class = cavallo>, fillcolor="#bddef6"] ;
110 -> 111 ;
112 [label=<gini = 0.0<br/>samples = 6<br/>value = [0, 6]<br/>class = cavallo>, fillcolor="#399de5"] ;
111 -> 112 ;
113 [label=<gini = 0.0<br/>samples = 4<br/>value = [4, 0]<br/>class = cane>, fillcolor="#e58139"] ;
111 -> 113 ;
114 [label=<gini = 0.0<br/>samples = 24<br/>value = [24, 0]<br/>class = cane>, fillcolor="#e58139"] ;
110 -> 114 ;
115 [label=<X<SUB>15604</SUB> &le; 0.981<br/>gini = 0.242<br/>samples = 674<br/>value = [579, 95]<br/>class = cane>, fillcolor="#e99659"] ;
57 -> 115 ;
116 [label=<X<SUB>27447</SUB> &le; 0.072<br/>gini = 0.229<br/>samples = 667<br/>value = [579, 88]<br/>class = cane>, fillcolor="#e99457"] ;
115 -> 116 ;
117 [label=<X<SUB>21867</SUB> &le; 0.49<br/>gini = 0.32<br/>samples = 10<br/>value = [2, 8]<br/>class = cavallo>, fillcolor="#6ab6ec"] ;
116 -> 117 ;
118 [label=<gini = 0.0<br/>samples = 2<br/>value = [2, 0]<br/>class = cane>, fillcolor="#e58139"] ;
117 -> 118 ;
119 [label=<gini = 0.0<br/>samples = 8<br/>value = [0, 8]<br/>class = cavallo>, fillcolor="#399de5"] ;
117 -> 119 ;
120 [label=<X<SUB>46600</SUB> &le; 0.68<br/>gini = 0.214<br/>samples = 657<br/>value = [577, 80]<br/>class = cane>, fillcolor="#e99254"] ;
116 -> 120 ;
121 [label=<X<SUB>29192</SUB> &le; 0.011<br/>gini = 0.186<br/>samples = 626<br/>value = [561, 65]<br/>class = cane>, fillcolor="#e89050"] ;
120 -> 121 ;
122 [label=<gini = 0.0<br/>samples = 5<br/>value = [0, 5]<br/>class = cavallo>, fillcolor="#399de5"] ;
121 -> 122 ;
123 [label=<X<SUB>36880</SUB> &le; 0.438<br/>gini = 0.175<br/>samples = 621<br/>value = [561, 60]<br/>class = cane>, fillcolor="#e88e4e"] ;
121 -> 123 ;
124 [label=<X<SUB>21048</SUB> &le; 0.868<br/>gini = 0.335<br/>samples = 188<br/>value = [148, 40]<br/>class = cane>, fillcolor="#eca36f"] ;
123 -> 124 ;
125 [label=<X<SUB>21930</SUB> &le; 0.23<br/>gini = 0.294<br/>samples = 179<br/>value = [147, 32]<br/>class = cane>, fillcolor="#eb9c64"] ;
124 -> 125 ;
126 [label=<X<SUB>40729</SUB> &le; 0.275<br/>gini = 0.49<br/>samples = 21<br/>value = [9, 12]<br/>class = cavallo>, fillcolor="#cee6f8"] ;
125 -> 126 ;
127 [label=<X<SUB>22937</SUB> &le; 0.174<br/>gini = 0.298<br/>samples = 11<br/>value = [9, 2]<br/>class = cane>, fillcolor="#eb9d65"] ;
126 -> 127 ;
128 [label=<gini = 0.0<br/>samples = 2<br/>value = [0, 2]<br/>class = cavallo>, fillcolor="#399de5"] ;
127 -> 128 ;
129 [label=<gini = 0.0<br/>samples = 9<br/>value = [9, 0]<br/>class = cane>, fillcolor="#e58139"] ;
127 -> 129 ;
130 [label=<gini = 0.0<br/>samples = 10<br/>value = [0, 10]<br/>class = cavallo>, fillcolor="#399de5"] ;
126 -> 130 ;
131 [label=<X<SUB>20442</SUB> &le; 0.936<br/>gini = 0.221<br/>samples = 158<br/>value = [138, 20]<br/>class = cane>, fillcolor="#e99356"] ;
125 -> 131 ;
132 [label=<X<SUB>59977</SUB> &le; 0.063<br/>gini = 0.186<br/>samples = 154<br/>value = [138, 16]<br/>class = cane>, fillcolor="#e89050"] ;
131 -> 132 ;
133 [label=<X<SUB>6712</SUB> &le; 0.36<br/>gini = 0.278<br/>samples = 6<br/>value = [1, 5]<br/>class = cavallo>, fillcolor="#61b1ea"] ;
132 -> 133 ;
134 [label=<gini = 0.0<br/>samples = 1<br/>value = [1, 0]<br/>class = cane>, fillcolor="#e58139"] ;
133 -> 134 ;
135 [label=<gini = 0.0<br/>samples = 5<br/>value = [0, 5]<br/>class = cavallo>, fillcolor="#399de5"] ;
133 -> 135 ;
136 [label=<X<SUB>45782</SUB> &le; 0.743<br/>gini = 0.138<br/>samples = 148<br/>value = [137, 11]<br/>class = cane>, fillcolor="#e78b49"] ;
132 -> 136 ;
137 [label=<X<SUB>49922</SUB> &le; 0.049<br/>gini = 0.104<br/>samples = 145<br/>value = [137, 8]<br/>class = cane>, fillcolor="#e78845"] ;
136 -> 137 ;
138 [label=<X<SUB>63133</SUB> &le; 0.205<br/>gini = 0.375<br/>samples = 4<br/>value = [1, 3]<br/>class = cavallo>, fillcolor="#7bbeee"] ;
137 -> 138 ;
139 [label=<gini = 0.0<br/>samples = 1<br/>value = [1, 0]<br/>class = cane>, fillcolor="#e58139"] ;
138 -> 139 ;
140 [label=<gini = 0.0<br/>samples = 3<br/>value = [0, 3]<br/>class = cavallo>, fillcolor="#399de5"] ;
138 -> 140 ;
141 [label=<X<SUB>51064</SUB> &le; 0.665<br/>gini = 0.068<br/>samples = 141<br/>value = [136, 5]<br/>class = cane>, fillcolor="#e68640"] ;
137 -> 141 ;
142 [label=<X<SUB>57290</SUB> &le; 0.042<br/>gini = 0.042<br/>samples = 139<br/>value = [136, 3]<br/>class = cane>, fillcolor="#e6843d"] ;
141 -> 142 ;
143 [label=<gini = 0.0<br/>samples = 2<br/>value = [0, 2]<br/>class = cavallo>, fillcolor="#399de5"] ;
142 -> 143 ;
144 [label=<X<SUB>18181</SUB> &le; 0.025<br/>gini = 0.014<br/>samples = 137<br/>value = [136, 1]<br/>class = cane>, fillcolor="#e5823a"] ;
142 -> 144 ;
145 [label=<gini = 0.0<br/>samples = 1<br/>value = [0, 1]<br/>class = cavallo>, fillcolor="#399de5"] ;
144 -> 145 ;
146 [label=<gini = 0.0<br/>samples = 136<br/>value = [136, 0]<br/>class = cane>, fillcolor="#e58139"] ;
144 -> 146 ;
147 [label=<gini = 0.0<br/>samples = 2<br/>value = [0, 2]<br/>class = cavallo>, fillcolor="#399de5"] ;
141 -> 147 ;
148 [label=<gini = 0.0<br/>samples = 3<br/>value = [0, 3]<br/>class = cavallo>, fillcolor="#399de5"] ;
136 -> 148 ;
149 [label=<gini = 0.0<br/>samples = 4<br/>value = [0, 4]<br/>class = cavallo>, fillcolor="#399de5"] ;
131 -> 149 ;
150 [label=<X<SUB>17015</SUB> &le; 0.875<br/>gini = 0.198<br/>samples = 9<br/>value = [1, 8]<br/>class = cavallo>, fillcolor="#52a9e8"] ;
124 -> 150 ;
151 [label=<gini = 0.0<br/>samples = 8<br/>value = [0, 8]<br/>class = cavallo>, fillcolor="#399de5"] ;
150 -> 151 ;
152 [label=<gini = 0.0<br/>samples = 1<br/>value = [1, 0]<br/>class = cane>, fillcolor="#e58139"] ;
150 -> 152 ;
153 [label=<X<SUB>28990</SUB> &le; 0.804<br/>gini = 0.088<br/>samples = 433<br/>value = [413, 20]<br/>class = cane>, fillcolor="#e68743"] ;
123 -> 153 ;
154 [label=<X<SUB>41207</SUB> &le; 0.743<br/>gini = 0.06<br/>samples = 422<br/>value = [409, 13]<br/>class = cane>, fillcolor="#e6853f"] ;
153 -> 154 ;
155 [label=<X<SUB>43633</SUB> &le; 0.171<br/>gini = 0.051<br/>samples = 420<br/>value = [409, 11]<br/>class = cane>, fillcolor="#e6843e"] ;
154 -> 155 ;
156 [label=<X<SUB>51058</SUB> &le; 0.279<br/>gini = 0.48<br/>samples = 10<br/>value = [6, 4]<br/>class = cane>, fillcolor="#f6d5bd"] ;
155 -> 156 ;
157 [label=<gini = 0.0<br/>samples = 4<br/>value = [0, 4]<br/>class = cavallo>, fillcolor="#399de5"] ;
156 -> 157 ;
158 [label=<gini = 0.0<br/>samples = 6<br/>value = [6, 0]<br/>class = cane>, fillcolor="#e58139"] ;
156 -> 158 ;
159 [label=<X<SUB>46856</SUB> &le; 0.055<br/>gini = 0.034<br/>samples = 410<br/>value = [403, 7]<br/>class = cane>, fillcolor="#e5833c"] ;
155 -> 159 ;
160 [label=<X<SUB>33049</SUB> &le; 0.229<br/>gini = 0.49<br/>samples = 7<br/>value = [4, 3]<br/>class = cane>, fillcolor="#f8e0ce"] ;
159 -> 160 ;
161 [label=<gini = 0.0<br/>samples = 4<br/>value = [4, 0]<br/>class = cane>, fillcolor="#e58139"] ;
160 -> 161 ;
162 [label=<gini = 0.0<br/>samples = 3<br/>value = [0, 3]<br/>class = cavallo>, fillcolor="#399de5"] ;
160 -> 162 ;
163 [label=<X<SUB>250</SUB> &le; 0.996<br/>gini = 0.02<br/>samples = 403<br/>value = [399, 4]<br/>class = cane>, fillcolor="#e5823b"] ;
159 -> 163 ;
164 [label=<X<SUB>11109</SUB> &le; 0.992<br/>gini = 0.015<br/>samples = 402<br/>value = [399, 3]<br/>class = cane>, fillcolor="#e5823a"] ;
163 -> 164 ;
165 [label=<X<SUB>25443</SUB> &le; 0.979<br/>gini = 0.01<br/>samples = 401<br/>value = [399, 2]<br/>class = cane>, fillcolor="#e5823a"] ;
164 -> 165 ;
166 [label=<X<SUB>47944</SUB> &le; 0.006<br/>gini = 0.005<br/>samples = 400<br/>value = [399, 1]<br/>class = cane>, fillcolor="#e58139"] ;
165 -> 166 ;
167 [label=<X<SUB>45430</SUB> &le; 0.51<br/>gini = 0.444<br/>samples = 3<br/>value = [2, 1]<br/>class = cane>, fillcolor="#f2c09c"] ;
166 -> 167 ;
168 [label=<gini = 0.0<br/>samples = 1<br/>value = [0, 1]<br/>class = cavallo>, fillcolor="#399de5"] ;
167 -> 168 ;
169 [label=<gini = 0.0<br/>samples = 2<br/>value = [2, 0]<br/>class = cane>, fillcolor="#e58139"] ;
167 -> 169 ;
170 [label=<gini = 0.0<br/>samples = 397<br/>value = [397, 0]<br/>class = cane>, fillcolor="#e58139"] ;
166 -> 170 ;
171 [label=<gini = 0.0<br/>samples = 1<br/>value = [0, 1]<br/>class = cavallo>, fillcolor="#399de5"] ;
165 -> 171 ;
172 [label=<gini = 0.0<br/>samples = 1<br/>value = [0, 1]<br/>class = cavallo>, fillcolor="#399de5"] ;
164 -> 172 ;
173 [label=<gini = 0.0<br/>samples = 1<br/>value = [0, 1]<br/>class = cavallo>, fillcolor="#399de5"] ;
163 -> 173 ;
174 [label=<gini = 0.0<br/>samples = 2<br/>value = [0, 2]<br/>class = cavallo>, fillcolor="#399de5"] ;
154 -> 174 ;
175 [label=<X<SUB>44609</SUB> &le; 0.516<br/>gini = 0.463<br/>samples = 11<br/>value = [4, 7]<br/>class = cavallo>, fillcolor="#aad5f4"] ;
153 -> 175 ;
176 [label=<gini = 0.0<br/>samples = 7<br/>value = [0, 7]<br/>class = cavallo>, fillcolor="#399de5"] ;
175 -> 176 ;
177 [label=<gini = 0.0<br/>samples = 4<br/>value = [4, 0]<br/>class = cane>, fillcolor="#e58139"] ;
175 -> 177 ;
178 [label=<X<SUB>31038</SUB> &le; 0.719<br/>gini = 0.499<br/>samples = 31<br/>value = [16, 15]<br/>class = cane>, fillcolor="#fdf7f3"] ;
120 -> 178 ;
179 [label=<X<SUB>63513</SUB> &le; 0.483<br/>gini = 0.278<br/>samples = 18<br/>value = [3, 15]<br/>class = cavallo>, fillcolor="#61b1ea"] ;
178 -> 179 ;
180 [label=<gini = 0.0<br/>samples = 3<br/>value = [3, 0]<br/>class = cane>, fillcolor="#e58139"] ;
179 -> 180 ;
181 [label=<gini = 0.0<br/>samples = 15<br/>value = [0, 15]<br/>class = cavallo>, fillcolor="#399de5"] ;
179 -> 181 ;
182 [label=<gini = 0.0<br/>samples = 13<br/>value = [13, 0]<br/>class = cane>, fillcolor="#e58139"] ;
178 -> 182 ;
183 [label=<gini = 0.0<br/>samples = 7<br/>value = [0, 7]<br/>class = cavallo>, fillcolor="#399de5"] ;
115 -> 183 ;
184 [label=<X<SUB>20185</SUB> &le; 0.466<br/>gini = 0.498<br/>samples = 1012<br/>value = [538, 474]<br/>class = cane>, fillcolor="#fcf0e7"] ;
2 -> 184 ;
185 [label=<X<SUB>52195</SUB> &le; 0.411<br/>gini = 0.482<br/>samples = 520<br/>value = [210, 310]<br/>class = cavallo>, fillcolor="#bfdff7"] ;
184 -> 185 ;
186 [label=<X<SUB>45651</SUB> &le; 0.56<br/>gini = 0.453<br/>samples = 147<br/>value = [96, 51]<br/>class = cane>, fillcolor="#f3c4a2"] ;
185 -> 186 ;
187 [label=<X<SUB>64533</SUB> &le; 0.358<br/>gini = 0.485<br/>samples = 63<br/>value = [26, 37]<br/>class = cavallo>, fillcolor="#c4e2f7"] ;
186 -> 187 ;
188 [label=<X<SUB>24416</SUB> &le; 0.41<br/>gini = 0.308<br/>samples = 21<br/>value = [17, 4]<br/>class = cane>, fillcolor="#eb9f68"] ;
187 -> 188 ;
189 [label=<gini = 0.0<br/>samples = 17<br/>value = [17, 0]<br/>class = cane>, fillcolor="#e58139"] ;
188 -> 189 ;
190 [label=<gini = 0.0<br/>samples = 4<br/>value = [0, 4]<br/>class = cavallo>, fillcolor="#399de5"] ;
188 -> 190 ;
191 [label=<X<SUB>60550</SUB> &le; 0.202<br/>gini = 0.337<br/>samples = 42<br/>value = [9, 33]<br/>class = cavallo>, fillcolor="#6fb8ec"] ;
187 -> 191 ;
192 [label=<gini = 0.0<br/>samples = 5<br/>value = [5, 0]<br/>class = cane>, fillcolor="#e58139"] ;
191 -> 192 ;
193 [label=<X<SUB>17668</SUB> &le; 0.085<br/>gini = 0.193<br/>samples = 37<br/>value = [4, 33]<br/>class = cavallo>, fillcolor="#51a9e8"] ;
191 -> 193 ;
194 [label=<gini = 0.0<br/>samples = 4<br/>value = [4, 0]<br/>class = cane>, fillcolor="#e58139"] ;
193 -> 194 ;
195 [label=<gini = 0.0<br/>samples = 33<br/>value = [0, 33]<br/>class = cavallo>, fillcolor="#399de5"] ;
193 -> 195 ;
196 [label=<X<SUB>182</SUB> &le; 0.765<br/>gini = 0.278<br/>samples = 84<br/>value = [70, 14]<br/>class = cane>, fillcolor="#ea9a61"] ;
186 -> 196 ;
197 [label=<X<SUB>8792</SUB> &le; 0.095<br/>gini = 0.184<br/>samples = 78<br/>value = [70, 8]<br/>class = cane>, fillcolor="#e88f50"] ;
196 -> 197 ;
198 [label=<X<SUB>45145</SUB> &le; 0.443<br/>gini = 0.408<br/>samples = 7<br/>value = [2, 5]<br/>class = cavallo>, fillcolor="#88c4ef"] ;
197 -> 198 ;
199 [label=<gini = 0.0<br/>samples = 2<br/>value = [2, 0]<br/>class = cane>, fillcolor="#e58139"] ;
198 -> 199 ;
200 [label=<gini = 0.0<br/>samples = 5<br/>value = [0, 5]<br/>class = cavallo>, fillcolor="#399de5"] ;
198 -> 200 ;
201 [label=<X<SUB>27273</SUB> &le; 0.911<br/>gini = 0.081<br/>samples = 71<br/>value = [68, 3]<br/>class = cane>, fillcolor="#e68742"] ;
197 -> 201 ;
202 [label=<gini = 0.0<br/>samples = 67<br/>value = [67, 0]<br/>class = cane>, fillcolor="#e58139"] ;
201 -> 202 ;
203 [label=<X<SUB>46275</SUB> &le; 0.186<br/>gini = 0.375<br/>samples = 4<br/>value = [1, 3]<br/>class = cavallo>, fillcolor="#7bbeee"] ;
201 -> 203 ;
204 [label=<gini = 0.0<br/>samples = 1<br/>value = [1, 0]<br/>class = cane>, fillcolor="#e58139"] ;
203 -> 204 ;
205 [label=<gini = 0.0<br/>samples = 3<br/>value = [0, 3]<br/>class = cavallo>, fillcolor="#399de5"] ;
203 -> 205 ;
206 [label=<gini = 0.0<br/>samples = 6<br/>value = [0, 6]<br/>class = cavallo>, fillcolor="#399de5"] ;
196 -> 206 ;
207 [label=<X<SUB>37975</SUB> &le; 0.448<br/>gini = 0.424<br/>samples = 373<br/>value = [114, 259]<br/>class = cavallo>, fillcolor="#90c8f0"] ;
185 -> 207 ;
208 [label=<X<SUB>29436</SUB> &le; 0.086<br/>gini = 0.321<br/>samples = 259<br/>value = [52, 207]<br/>class = cavallo>, fillcolor="#6bb6ec"] ;
207 -> 208 ;
209 [label=<X<SUB>38283</SUB> &le; 0.784<br/>gini = 0.245<br/>samples = 14<br/>value = [12, 2]<br/>class = cane>, fillcolor="#e9965a"] ;
208 -> 209 ;
210 [label=<gini = 0.0<br/>samples = 12<br/>value = [12, 0]<br/>class = cane>, fillcolor="#e58139"] ;
209 -> 210 ;
211 [label=<gini = 0.0<br/>samples = 2<br/>value = [0, 2]<br/>class = cavallo>, fillcolor="#399de5"] ;
209 -> 211 ;
212 [label=<X<SUB>38133</SUB> &le; 0.897<br/>gini = 0.273<br/>samples = 245<br/>value = [40, 205]<br/>class = cavallo>, fillcolor="#60b0ea"] ;
208 -> 212 ;
213 [label=<X<SUB>10556</SUB> &le; 0.087<br/>gini = 0.244<br/>samples = 239<br/>value = [34, 205]<br/>class = cavallo>, fillcolor="#5aade9"] ;
212 -> 213 ;
214 [label=<X<SUB>34698</SUB> &le; 0.442<br/>gini = 0.5<br/>samples = 22<br/>value = [11, 11]<br/>class = cane>, fillcolor="#ffffff"] ;
213 -> 214 ;
215 [label=<X<SUB>14589</SUB> &le; 0.055<br/>gini = 0.153<br/>samples = 12<br/>value = [1, 11]<br/>class = cavallo>, fillcolor="#4ba6e7"] ;
214 -> 215 ;
216 [label=<gini = 0.0<br/>samples = 1<br/>value = [1, 0]<br/>class = cane>, fillcolor="#e58139"] ;
215 -> 216 ;
217 [label=<gini = 0.0<br/>samples = 11<br/>value = [0, 11]<br/>class = cavallo>, fillcolor="#399de5"] ;
215 -> 217 ;
218 [label=<gini = 0.0<br/>samples = 10<br/>value = [10, 0]<br/>class = cane>, fillcolor="#e58139"] ;
214 -> 218 ;
219 [label=<X<SUB>53240</SUB> &le; 0.556<br/>gini = 0.19<br/>samples = 217<br/>value = [23, 194]<br/>class = cavallo>, fillcolor="#50a9e8"] ;
213 -> 219 ;
220 [label=<X<SUB>61535</SUB> &le; 0.062<br/>gini = 0.065<br/>samples = 149<br/>value = [5, 144]<br/>class = cavallo>, fillcolor="#40a0e6"] ;
219 -> 220 ;
221 [label=<gini = 0.0<br/>samples = 2<br/>value = [2, 0]<br/>class = cane>, fillcolor="#e58139"] ;
220 -> 221 ;
222 [label=<X<SUB>45570</SUB> &le; 0.881<br/>gini = 0.04<br/>samples = 147<br/>value = [3, 144]<br/>class = cavallo>, fillcolor="#3d9fe6"] ;
220 -> 222 ;
223 [label=<X<SUB>28710</SUB> &le; 0.97<br/>gini = 0.014<br/>samples = 144<br/>value = [1, 143]<br/>class = cavallo>, fillcolor="#3a9ee5"] ;
222 -> 223 ;
224 [label=<gini = 0.0<br/>samples = 143<br/>value = [0, 143]<br/>class = cavallo>, fillcolor="#399de5"] ;
223 -> 224 ;
225 [label=<gini = 0.0<br/>samples = 1<br/>value = [1, 0]<br/>class = cane>, fillcolor="#e58139"] ;
223 -> 225 ;
226 [label=<X<SUB>35879</SUB> &le; 0.228<br/>gini = 0.444<br/>samples = 3<br/>value = [2, 1]<br/>class = cane>, fillcolor="#f2c09c"] ;
222 -> 226 ;
227 [label=<gini = 0.0<br/>samples = 1<br/>value = [0, 1]<br/>class = cavallo>, fillcolor="#399de5"] ;
226 -> 227 ;
228 [label=<gini = 0.0<br/>samples = 2<br/>value = [2, 0]<br/>class = cane>, fillcolor="#e58139"] ;
226 -> 228 ;
229 [label=<X<SUB>56877</SUB> &le; 0.634<br/>gini = 0.389<br/>samples = 68<br/>value = [18, 50]<br/>class = cavallo>, fillcolor="#80c0ee"] ;
219 -> 229 ;
230 [label=<X<SUB>57853</SUB> &le; 0.484<br/>gini = 0.485<br/>samples = 29<br/>value = [17, 12]<br/>class = cane>, fillcolor="#f7dac5"] ;
229 -> 230 ;
231 [label=<gini = 0.0<br/>samples = 10<br/>value = [0, 10]<br/>class = cavallo>, fillcolor="#399de5"] ;
230 -> 231 ;
232 [label=<X<SUB>116</SUB> &le; 0.067<br/>gini = 0.188<br/>samples = 19<br/>value = [17, 2]<br/>class = cane>, fillcolor="#e89050"] ;
230 -> 232 ;
233 [label=<gini = 0.0<br/>samples = 2<br/>value = [0, 2]<br/>class = cavallo>, fillcolor="#399de5"] ;
232 -> 233 ;
234 [label=<gini = 0.0<br/>samples = 17<br/>value = [17, 0]<br/>class = cane>, fillcolor="#e58139"] ;
232 -> 234 ;
235 [label=<X<SUB>5038</SUB> &le; 0.939<br/>gini = 0.05<br/>samples = 39<br/>value = [1, 38]<br/>class = cavallo>, fillcolor="#3ea0e6"] ;
229 -> 235 ;
236 [label=<gini = 0.0<br/>samples = 38<br/>value = [0, 38]<br/>class = cavallo>, fillcolor="#399de5"] ;
235 -> 236 ;
237 [label=<gini = 0.0<br/>samples = 1<br/>value = [1, 0]<br/>class = cane>, fillcolor="#e58139"] ;
235 -> 237 ;
238 [label=<gini = 0.0<br/>samples = 6<br/>value = [6, 0]<br/>class = cane>, fillcolor="#e58139"] ;
212 -> 238 ;
239 [label=<X<SUB>38358</SUB> &le; 0.611<br/>gini = 0.496<br/>samples = 114<br/>value = [62, 52]<br/>class = cane>, fillcolor="#fbebdf"] ;
207 -> 239 ;
240 [label=<X<SUB>51197</SUB> &le; 0.528<br/>gini = 0.461<br/>samples = 72<br/>value = [26, 46]<br/>class = cavallo>, fillcolor="#a9d4f4"] ;
239 -> 240 ;
241 [label=<X<SUB>66247</SUB> &le; 0.387<br/>gini = 0.291<br/>samples = 51<br/>value = [9, 42]<br/>class = cavallo>, fillcolor="#63b2eb"] ;
240 -> 241 ;
242 [label=<gini = 0.0<br/>samples = 6<br/>value = [6, 0]<br/>class = cane>, fillcolor="#e58139"] ;
241 -> 242 ;
243 [label=<X<SUB>56132</SUB> &le; 0.132<br/>gini = 0.124<br/>samples = 45<br/>value = [3, 42]<br/>class = cavallo>, fillcolor="#47a4e7"] ;
241 -> 243 ;
244 [label=<X<SUB>14380</SUB> &le; 0.241<br/>gini = 0.375<br/>samples = 4<br/>value = [3, 1]<br/>class = cane>, fillcolor="#eeab7b"] ;
243 -> 244 ;
245 [label=<gini = 0.0<br/>samples = 1<br/>value = [0, 1]<br/>class = cavallo>, fillcolor="#399de5"] ;
244 -> 245 ;
246 [label=<gini = 0.0<br/>samples = 3<br/>value = [3, 0]<br/>class = cane>, fillcolor="#e58139"] ;
244 -> 246 ;
247 [label=<gini = 0.0<br/>samples = 41<br/>value = [0, 41]<br/>class = cavallo>, fillcolor="#399de5"] ;
243 -> 247 ;
248 [label=<X<SUB>9691</SUB> &le; 0.206<br/>gini = 0.308<br/>samples = 21<br/>value = [17, 4]<br/>class = cane>, fillcolor="#eb9f68"] ;
240 -> 248 ;
249 [label=<gini = 0.0<br/>samples = 4<br/>value = [0, 4]<br/>class = cavallo>, fillcolor="#399de5"] ;
248 -> 249 ;
250 [label=<gini = 0.0<br/>samples = 17<br/>value = [17, 0]<br/>class = cane>, fillcolor="#e58139"] ;
248 -> 250 ;
251 [label=<X<SUB>18859</SUB> &le; 0.492<br/>gini = 0.245<br/>samples = 42<br/>value = [36, 6]<br/>class = cane>, fillcolor="#e9965a"] ;
239 -> 251 ;
252 [label=<X<SUB>10456</SUB> &le; 0.936<br/>gini = 0.054<br/>samples = 36<br/>value = [35, 1]<br/>class = cane>, fillcolor="#e6853f"] ;
251 -> 252 ;
253 [label=<gini = 0.0<br/>samples = 35<br/>value = [35, 0]<br/>class = cane>, fillcolor="#e58139"] ;
252 -> 253 ;
254 [label=<gini = 0.0<br/>samples = 1<br/>value = [0, 1]<br/>class = cavallo>, fillcolor="#399de5"] ;
252 -> 254 ;
255 [label=<X<SUB>51406</SUB> &le; 0.319<br/>gini = 0.278<br/>samples = 6<br/>value = [1, 5]<br/>class = cavallo>, fillcolor="#61b1ea"] ;
251 -> 255 ;
256 [label=<gini = 0.0<br/>samples = 1<br/>value = [1, 0]<br/>class = cane>, fillcolor="#e58139"] ;
255 -> 256 ;
257 [label=<gini = 0.0<br/>samples = 5<br/>value = [0, 5]<br/>class = cavallo>, fillcolor="#399de5"] ;
255 -> 257 ;
258 [label=<X<SUB>32785</SUB> &le; 0.221<br/>gini = 0.444<br/>samples = 492<br/>value = [328, 164]<br/>class = cane>, fillcolor="#f2c09c"] ;
184 -> 258 ;
259 [label=<X<SUB>29478</SUB> &le; 0.077<br/>gini = 0.385<br/>samples = 50<br/>value = [13, 37]<br/>class = cavallo>, fillcolor="#7fbfee"] ;
258 -> 259 ;
260 [label=<gini = 0.0<br/>samples = 8<br/>value = [8, 0]<br/>class = cane>, fillcolor="#e58139"] ;
259 -> 260 ;
261 [label=<X<SUB>54883</SUB> &le; 0.295<br/>gini = 0.21<br/>samples = 42<br/>value = [5, 37]<br/>class = cavallo>, fillcolor="#54aae9"] ;
259 -> 261 ;
262 [label=<gini = 0.0<br/>samples = 4<br/>value = [4, 0]<br/>class = cane>, fillcolor="#e58139"] ;
261 -> 262 ;
263 [label=<X<SUB>37418</SUB> &le; 0.858<br/>gini = 0.051<br/>samples = 38<br/>value = [1, 37]<br/>class = cavallo>, fillcolor="#3ea0e6"] ;
261 -> 263 ;
264 [label=<gini = 0.0<br/>samples = 37<br/>value = [0, 37]<br/>class = cavallo>, fillcolor="#399de5"] ;
263 -> 264 ;
265 [label=<gini = 0.0<br/>samples = 1<br/>value = [1, 0]<br/>class = cane>, fillcolor="#e58139"] ;
263 -> 265 ;
266 [label=<X<SUB>38612</SUB> &le; 0.098<br/>gini = 0.41<br/>samples = 442<br/>value = [315, 127]<br/>class = cane>, fillcolor="#efb489"] ;
258 -> 266 ;
267 [label=<X<SUB>6389</SUB> &le; 0.285<br/>gini = 0.418<br/>samples = 37<br/>value = [11, 26]<br/>class = cavallo>, fillcolor="#8dc6f0"] ;
266 -> 267 ;
268 [label=<X<SUB>26777</SUB> &le; 0.331<br/>gini = 0.165<br/>samples = 11<br/>value = [10, 1]<br/>class = cane>, fillcolor="#e88e4d"] ;
267 -> 268 ;
269 [label=<gini = 0.0<br/>samples = 10<br/>value = [10, 0]<br/>class = cane>, fillcolor="#e58139"] ;
268 -> 269 ;
270 [label=<gini = 0.0<br/>samples = 1<br/>value = [0, 1]<br/>class = cavallo>, fillcolor="#399de5"] ;
268 -> 270 ;
271 [label=<X<SUB>67251</SUB> &le; 0.304<br/>gini = 0.074<br/>samples = 26<br/>value = [1, 25]<br/>class = cavallo>, fillcolor="#41a1e6"] ;
267 -> 271 ;
272 [label=<gini = 0.0<br/>samples = 1<br/>value = [1, 0]<br/>class = cane>, fillcolor="#e58139"] ;
271 -> 272 ;
273 [label=<gini = 0.0<br/>samples = 25<br/>value = [0, 25]<br/>class = cavallo>, fillcolor="#399de5"] ;
271 -> 273 ;
274 [label=<X<SUB>37863</SUB> &le; 0.125<br/>gini = 0.374<br/>samples = 405<br/>value = [304, 101]<br/>class = cane>, fillcolor="#eeab7b"] ;
266 -> 274 ;
275 [label=<X<SUB>19004</SUB> &le; 0.198<br/>gini = 0.363<br/>samples = 21<br/>value = [5, 16]<br/>class = cavallo>, fillcolor="#77bced"] ;
274 -> 275 ;
276 [label=<gini = 0.0<br/>samples = 5<br/>value = [5, 0]<br/>class = cane>, fillcolor="#e58139"] ;
275 -> 276 ;
277 [label=<gini = 0.0<br/>samples = 16<br/>value = [0, 16]<br/>class = cavallo>, fillcolor="#399de5"] ;
275 -> 277 ;
278 [label=<X<SUB>801</SUB> &le; 0.705<br/>gini = 0.345<br/>samples = 384<br/>value = [299, 85]<br/>class = cane>, fillcolor="#eca571"] ;
274 -> 278 ;
279 [label=<X<SUB>35789</SUB> &le; 0.041<br/>gini = 0.405<br/>samples = 294<br/>value = [211, 83]<br/>class = cane>, fillcolor="#efb387"] ;
278 -> 279 ;
280 [label=<X<SUB>53949</SUB> &le; 0.394<br/>gini = 0.291<br/>samples = 17<br/>value = [3, 14]<br/>class = cavallo>, fillcolor="#63b2eb"] ;
279 -> 280 ;
281 [label=<gini = 0.0<br/>samples = 3<br/>value = [3, 0]<br/>class = cane>, fillcolor="#e58139"] ;
280 -> 281 ;
282 [label=<gini = 0.0<br/>samples = 14<br/>value = [0, 14]<br/>class = cavallo>, fillcolor="#399de5"] ;
280 -> 282 ;
283 [label=<X<SUB>4454</SUB> &le; 0.641<br/>gini = 0.374<br/>samples = 277<br/>value = [208, 69]<br/>class = cane>, fillcolor="#eeab7b"] ;
279 -> 283 ;
284 [label=<X<SUB>4992</SUB> &le; 0.127<br/>gini = 0.311<br/>samples = 234<br/>value = [189, 45]<br/>class = cane>, fillcolor="#eb9f68"] ;
283 -> 284 ;
285 [label=<X<SUB>58266</SUB> &le; 0.376<br/>gini = 0.18<br/>samples = 10<br/>value = [1, 9]<br/>class = cavallo>, fillcolor="#4fa8e8"] ;
284 -> 285 ;
286 [label=<gini = 0.0<br/>samples = 1<br/>value = [1, 0]<br/>class = cane>, fillcolor="#e58139"] ;
285 -> 286 ;
287 [label=<gini = 0.0<br/>samples = 9<br/>value = [0, 9]<br/>class = cavallo>, fillcolor="#399de5"] ;
285 -> 287 ;
288 [label=<X<SUB>26874</SUB> &le; 0.886<br/>gini = 0.27<br/>samples = 224<br/>value = [188, 36]<br/>class = cane>, fillcolor="#ea995f"] ;
284 -> 288 ;
289 [label=<X<SUB>37374</SUB> &le; 0.19<br/>gini = 0.221<br/>samples = 213<br/>value = [186, 27]<br/>class = cane>, fillcolor="#e99356"] ;
288 -> 289 ;
290 [label=<X<SUB>35815</SUB> &le; 0.385<br/>gini = 0.346<br/>samples = 9<br/>value = [2, 7]<br/>class = cavallo>, fillcolor="#72b9ec"] ;
289 -> 290 ;
291 [label=<gini = 0.0<br/>samples = 7<br/>value = [0, 7]<br/>class = cavallo>, fillcolor="#399de5"] ;
290 -> 291 ;
292 [label=<gini = 0.0<br/>samples = 2<br/>value = [2, 0]<br/>class = cane>, fillcolor="#e58139"] ;
290 -> 292 ;
293 [label=<X<SUB>64709</SUB> &le; 0.053<br/>gini = 0.177<br/>samples = 204<br/>value = [184, 20]<br/>class = cane>, fillcolor="#e88f4f"] ;
289 -> 293 ;
294 [label=<gini = 0.0<br/>samples = 3<br/>value = [0, 3]<br/>class = cavallo>, fillcolor="#399de5"] ;
293 -> 294 ;
295 [label=<X<SUB>9168</SUB> &le; 0.096<br/>gini = 0.155<br/>samples = 201<br/>value = [184, 17]<br/>class = cane>, fillcolor="#e78d4b"] ;
293 -> 295 ;
296 [label=<gini = 0.0<br/>samples = 3<br/>value = [0, 3]<br/>class = cavallo>, fillcolor="#399de5"] ;
295 -> 296 ;
297 [label=<X<SUB>51665</SUB> &le; 0.855<br/>gini = 0.131<br/>samples = 198<br/>value = [184, 14]<br/>class = cane>, fillcolor="#e78b48"] ;
295 -> 297 ;
298 [label=<X<SUB>50502</SUB> &le; 0.056<br/>gini = 0.107<br/>samples = 194<br/>value = [183, 11]<br/>class = cane>, fillcolor="#e78945"] ;
297 -> 298 ;
299 [label=<X<SUB>5413</SUB> &le; 0.323<br/>gini = 0.375<br/>samples = 4<br/>value = [1, 3]<br/>class = cavallo>, fillcolor="#7bbeee"] ;
298 -> 299 ;
300 [label=<gini = 0.0<br/>samples = 1<br/>value = [1, 0]<br/>class = cane>, fillcolor="#e58139"] ;
299 -> 300 ;
301 [label=<gini = 0.0<br/>samples = 3<br/>value = [0, 3]<br/>class = cavallo>, fillcolor="#399de5"] ;
299 -> 301 ;
302 [label=<X<SUB>57211</SUB> &le; 0.126<br/>gini = 0.081<br/>samples = 190<br/>value = [182, 8]<br/>class = cane>, fillcolor="#e68742"] ;
298 -> 302 ;
303 [label=<gini = 0.0<br/>samples = 2<br/>value = [0, 2]<br/>class = cavallo>, fillcolor="#399de5"] ;
302 -> 303 ;
304 [label=<X<SUB>818</SUB> &le; 0.784<br/>gini = 0.062<br/>samples = 188<br/>value = [182, 6]<br/>class = cane>, fillcolor="#e68540"] ;
302 -> 304 ;
305 [label=<X<SUB>43103</SUB> &le; 0.031<br/>gini = 0.042<br/>samples = 186<br/>value = [182, 4]<br/>class = cane>, fillcolor="#e6843d"] ;
304 -> 305 ;
306 [label=<gini = 0.0<br/>samples = 2<br/>value = [0, 2]<br/>class = cavallo>, fillcolor="#399de5"] ;
305 -> 306 ;
307 [label=<X<SUB>32919</SUB> &le; 0.934<br/>gini = 0.022<br/>samples = 184<br/>value = [182, 2]<br/>class = cane>, fillcolor="#e5823b"] ;
305 -> 307 ;
308 [label=<X<SUB>801</SUB> &le; 0.7<br/>gini = 0.011<br/>samples = 183<br/>value = [182, 1]<br/>class = cane>, fillcolor="#e5823a"] ;
307 -> 308 ;
309 [label=<gini = 0.0<br/>samples = 182<br/>value = [182, 0]<br/>class = cane>, fillcolor="#e58139"] ;
308 -> 309 ;
310 [label=<gini = 0.0<br/>samples = 1<br/>value = [0, 1]<br/>class = cavallo>, fillcolor="#399de5"] ;
308 -> 310 ;
311 [label=<gini = 0.0<br/>samples = 1<br/>value = [0, 1]<br/>class = cavallo>, fillcolor="#399de5"] ;
307 -> 311 ;
312 [label=<gini = 0.0<br/>samples = 2<br/>value = [0, 2]<br/>class = cavallo>, fillcolor="#399de5"] ;
304 -> 312 ;
313 [label=<X<SUB>28150</SUB> &le; 0.111<br/>gini = 0.375<br/>samples = 4<br/>value = [1, 3]<br/>class = cavallo>, fillcolor="#7bbeee"] ;
297 -> 313 ;
314 [label=<gini = 0.0<br/>samples = 1<br/>value = [1, 0]<br/>class = cane>, fillcolor="#e58139"] ;
313 -> 314 ;
315 [label=<gini = 0.0<br/>samples = 3<br/>value = [0, 3]<br/>class = cavallo>, fillcolor="#399de5"] ;
313 -> 315 ;
316 [label=<X<SUB>48180</SUB> &le; 0.269<br/>gini = 0.298<br/>samples = 11<br/>value = [2, 9]<br/>class = cavallo>, fillcolor="#65b3eb"] ;
288 -> 316 ;
317 [label=<gini = 0.0<br/>samples = 2<br/>value = [2, 0]<br/>class = cane>, fillcolor="#e58139"] ;
316 -> 317 ;
318 [label=<gini = 0.0<br/>samples = 9<br/>value = [0, 9]<br/>class = cavallo>, fillcolor="#399de5"] ;
316 -> 318 ;
319 [label=<X<SUB>58253</SUB> &le; 0.575<br/>gini = 0.493<br/>samples = 43<br/>value = [19, 24]<br/>class = cavallo>, fillcolor="#d6ebfa"] ;
283 -> 319 ;
320 [label=<X<SUB>58704</SUB> &le; 0.439<br/>gini = 0.358<br/>samples = 30<br/>value = [7, 23]<br/>class = cavallo>, fillcolor="#75bbed"] ;
319 -> 320 ;
321 [label=<X<SUB>19701</SUB> &le; 0.723<br/>gini = 0.346<br/>samples = 9<br/>value = [7, 2]<br/>class = cane>, fillcolor="#eca572"] ;
320 -> 321 ;
322 [label=<gini = 0.0<br/>samples = 7<br/>value = [7, 0]<br/>class = cane>, fillcolor="#e58139"] ;
321 -> 322 ;
323 [label=<gini = 0.0<br/>samples = 2<br/>value = [0, 2]<br/>class = cavallo>, fillcolor="#399de5"] ;
321 -> 323 ;
324 [label=<gini = 0.0<br/>samples = 21<br/>value = [0, 21]<br/>class = cavallo>, fillcolor="#399de5"] ;
320 -> 324 ;
325 [label=<X<SUB>40437</SUB> &le; 0.368<br/>gini = 0.142<br/>samples = 13<br/>value = [12, 1]<br/>class = cane>, fillcolor="#e78c49"] ;
319 -> 325 ;
326 [label=<gini = 0.0<br/>samples = 1<br/>value = [0, 1]<br/>class = cavallo>, fillcolor="#399de5"] ;
325 -> 326 ;
327 [label=<gini = 0.0<br/>samples = 12<br/>value = [12, 0]<br/>class = cane>, fillcolor="#e58139"] ;
325 -> 327 ;
328 [label=<X<SUB>41453</SUB> &le; 0.076<br/>gini = 0.043<br/>samples = 90<br/>value = [88, 2]<br/>class = cane>, fillcolor="#e6843d"] ;
278 -> 328 ;
329 [label=<gini = 0.0<br/>samples = 2<br/>value = [0, 2]<br/>class = cavallo>, fillcolor="#399de5"] ;
328 -> 329 ;
330 [label=<gini = 0.0<br/>samples = 88<br/>value = [88, 0]<br/>class = cane>, fillcolor="#e58139"] ;
328 -> 330 ;
331 [label=<X<SUB>41133</SUB> &le; 0.55<br/>gini = 0.313<br/>samples = 1498<br/>value = [1207, 291]<br/>class = cane>, fillcolor="#eb9f69"] ;
1 -> 331 ;
332 [label=<X<SUB>7950</SUB> &le; 0.443<br/>gini = 0.402<br/>samples = 656<br/>value = [473, 183]<br/>class = cane>, fillcolor="#efb286"] ;
331 -> 332 ;
333 [label=<X<SUB>64714</SUB> &le; 0.213<br/>gini = 0.474<br/>samples = 324<br/>value = [199, 125]<br/>class = cane>, fillcolor="#f5d0b5"] ;
332 -> 333 ;
334 [label=<X<SUB>5369</SUB> &le; 0.894<br/>gini = 0.042<br/>samples = 47<br/>value = [46, 1]<br/>class = cane>, fillcolor="#e6843d"] ;
333 -> 334 ;
335 [label=<gini = 0.0<br/>samples = 46<br/>value = [46, 0]<br/>class = cane>, fillcolor="#e58139"] ;
334 -> 335 ;
336 [label=<gini = 0.0<br/>samples = 1<br/>value = [0, 1]<br/>class = cavallo>, fillcolor="#399de5"] ;
334 -> 336 ;
337 [label=<X<SUB>49858</SUB> &le; 0.763<br/>gini = 0.495<br/>samples = 277<br/>value = [153, 124]<br/>class = cane>, fillcolor="#fae7d9"] ;
333 -> 337 ;
338 [label=<X<SUB>67491</SUB> &le; 0.569<br/>gini = 0.5<br/>samples = 241<br/>value = [120, 121]<br/>class = cavallo>, fillcolor="#fdfeff"] ;
337 -> 338 ;
339 [label=<X<SUB>24170</SUB> &le; 0.409<br/>gini = 0.47<br/>samples = 151<br/>value = [94, 57]<br/>class = cane>, fillcolor="#f5cdb1"] ;
338 -> 339 ;
340 [label=<X<SUB>14354</SUB> &le; 0.434<br/>gini = 0.335<br/>samples = 94<br/>value = [74, 20]<br/>class = cane>, fillcolor="#eca36f"] ;
339 -> 340 ;
341 [label=<X<SUB>2537</SUB> &le; 0.027<br/>gini = 0.188<br/>samples = 76<br/>value = [68, 8]<br/>class = cane>, fillcolor="#e89050"] ;
340 -> 341 ;
342 [label=<X<SUB>29567</SUB> &le; 0.085<br/>gini = 0.32<br/>samples = 5<br/>value = [1, 4]<br/>class = cavallo>, fillcolor="#6ab6ec"] ;
341 -> 342 ;
343 [label=<gini = 0.0<br/>samples = 1<br/>value = [1, 0]<br/>class = cane>, fillcolor="#e58139"] ;
342 -> 343 ;
344 [label=<gini = 0.0<br/>samples = 4<br/>value = [0, 4]<br/>class = cavallo>, fillcolor="#399de5"] ;
342 -> 344 ;
345 [label=<X<SUB>23614</SUB> &le; 0.902<br/>gini = 0.106<br/>samples = 71<br/>value = [67, 4]<br/>class = cane>, fillcolor="#e78945"] ;
341 -> 345 ;
346 [label=<X<SUB>22094</SUB> &le; 0.917<br/>gini = 0.029<br/>samples = 67<br/>value = [66, 1]<br/>class = cane>, fillcolor="#e5833c"] ;
345 -> 346 ;
347 [label=<gini = 0.0<br/>samples = 66<br/>value = [66, 0]<br/>class = cane>, fillcolor="#e58139"] ;
346 -> 347 ;
348 [label=<gini = 0.0<br/>samples = 1<br/>value = [0, 1]<br/>class = cavallo>, fillcolor="#399de5"] ;
346 -> 348 ;
349 [label=<X<SUB>1797</SUB> &le; 0.404<br/>gini = 0.375<br/>samples = 4<br/>value = [1, 3]<br/>class = cavallo>, fillcolor="#7bbeee"] ;
345 -> 349 ;
350 [label=<gini = 0.0<br/>samples = 3<br/>value = [0, 3]<br/>class = cavallo>, fillcolor="#399de5"] ;
349 -> 350 ;
351 [label=<gini = 0.0<br/>samples = 1<br/>value = [1, 0]<br/>class = cane>, fillcolor="#e58139"] ;
349 -> 351 ;
352 [label=<X<SUB>15462</SUB> &le; 0.235<br/>gini = 0.444<br/>samples = 18<br/>value = [6, 12]<br/>class = cavallo>, fillcolor="#9ccef2"] ;
340 -> 352 ;
353 [label=<gini = 0.0<br/>samples = 6<br/>value = [6, 0]<br/>class = cane>, fillcolor="#e58139"] ;
352 -> 353 ;
354 [label=<gini = 0.0<br/>samples = 12<br/>value = [0, 12]<br/>class = cavallo>, fillcolor="#399de5"] ;
352 -> 354 ;
355 [label=<X<SUB>62402</SUB> &le; 0.324<br/>gini = 0.456<br/>samples = 57<br/>value = [20, 37]<br/>class = cavallo>, fillcolor="#a4d2f3"] ;
339 -> 355 ;
356 [label=<X<SUB>56186</SUB> &le; 0.493<br/>gini = 0.198<br/>samples = 36<br/>value = [4, 32]<br/>class = cavallo>, fillcolor="#52a9e8"] ;
355 -> 356 ;
357 [label=<X<SUB>35869</SUB> &le; 0.853<br/>gini = 0.059<br/>samples = 33<br/>value = [1, 32]<br/>class = cavallo>, fillcolor="#3fa0e6"] ;
356 -> 357 ;
358 [label=<gini = 0.0<br/>samples = 32<br/>value = [0, 32]<br/>class = cavallo>, fillcolor="#399de5"] ;
357 -> 358 ;
359 [label=<gini = 0.0<br/>samples = 1<br/>value = [1, 0]<br/>class = cane>, fillcolor="#e58139"] ;
357 -> 359 ;
360 [label=<gini = 0.0<br/>samples = 3<br/>value = [3, 0]<br/>class = cane>, fillcolor="#e58139"] ;
356 -> 360 ;
361 [label=<X<SUB>32749</SUB> &le; 0.351<br/>gini = 0.363<br/>samples = 21<br/>value = [16, 5]<br/>class = cane>, fillcolor="#eda877"] ;
355 -> 361 ;
362 [label=<gini = 0.0<br/>samples = 5<br/>value = [0, 5]<br/>class = cavallo>, fillcolor="#399de5"] ;
361 -> 362 ;
363 [label=<gini = 0.0<br/>samples = 16<br/>value = [16, 0]<br/>class = cane>, fillcolor="#e58139"] ;
361 -> 363 ;
364 [label=<X<SUB>10738</SUB> &le; 0.645<br/>gini = 0.411<br/>samples = 90<br/>value = [26, 64]<br/>class = cavallo>, fillcolor="#89c5f0"] ;
338 -> 364 ;
365 [label=<X<SUB>50225</SUB> &le; 0.27<br/>gini = 0.332<br/>samples = 81<br/>value = [17, 64]<br/>class = cavallo>, fillcolor="#6eb7ec"] ;
364 -> 365 ;
366 [label=<X<SUB>27672</SUB> &le; 0.561<br/>gini = 0.472<br/>samples = 21<br/>value = [13, 8]<br/>class = cane>, fillcolor="#f5cfb3"] ;
365 -> 366 ;
367 [label=<gini = 0.0<br/>samples = 12<br/>value = [12, 0]<br/>class = cane>, fillcolor="#e58139"] ;
366 -> 367 ;
368 [label=<X<SUB>27296</SUB> &le; 0.671<br/>gini = 0.198<br/>samples = 9<br/>value = [1, 8]<br/>class = cavallo>, fillcolor="#52a9e8"] ;
366 -> 368 ;
369 [label=<gini = 0.0<br/>samples = 8<br/>value = [0, 8]<br/>class = cavallo>, fillcolor="#399de5"] ;
368 -> 369 ;
370 [label=<gini = 0.0<br/>samples = 1<br/>value = [1, 0]<br/>class = cane>, fillcolor="#e58139"] ;
368 -> 370 ;
371 [label=<X<SUB>26814</SUB> &le; 0.234<br/>gini = 0.124<br/>samples = 60<br/>value = [4, 56]<br/>class = cavallo>, fillcolor="#47a4e7"] ;
365 -> 371 ;
372 [label=<gini = 0.0<br/>samples = 3<br/>value = [3, 0]<br/>class = cane>, fillcolor="#e58139"] ;
371 -> 372 ;
373 [label=<X<SUB>51899</SUB> &le; 0.691<br/>gini = 0.034<br/>samples = 57<br/>value = [1, 56]<br/>class = cavallo>, fillcolor="#3d9fe5"] ;
371 -> 373 ;
374 [label=<gini = 0.0<br/>samples = 56<br/>value = [0, 56]<br/>class = cavallo>, fillcolor="#399de5"] ;
373 -> 374 ;
375 [label=<gini = 0.0<br/>samples = 1<br/>value = [1, 0]<br/>class = cane>, fillcolor="#e58139"] ;
373 -> 375 ;
376 [label=<gini = 0.0<br/>samples = 9<br/>value = [9, 0]<br/>class = cane>, fillcolor="#e58139"] ;
364 -> 376 ;
377 [label=<X<SUB>45244</SUB> &le; 0.874<br/>gini = 0.153<br/>samples = 36<br/>value = [33, 3]<br/>class = cane>, fillcolor="#e78c4b"] ;
337 -> 377 ;
378 [label=<gini = 0.0<br/>samples = 33<br/>value = [33, 0]<br/>class = cane>, fillcolor="#e58139"] ;
377 -> 378 ;
379 [label=<gini = 0.0<br/>samples = 3<br/>value = [0, 3]<br/>class = cavallo>, fillcolor="#399de5"] ;
377 -> 379 ;
380 [label=<X<SUB>30559</SUB> &le; 0.158<br/>gini = 0.288<br/>samples = 332<br/>value = [274, 58]<br/>class = cane>, fillcolor="#eb9c63"] ;
332 -> 380 ;
381 [label=<X<SUB>31913</SUB> &le; 0.077<br/>gini = 0.444<br/>samples = 18<br/>value = [6, 12]<br/>class = cavallo>, fillcolor="#9ccef2"] ;
380 -> 381 ;
382 [label=<gini = 0.0<br/>samples = 6<br/>value = [6, 0]<br/>class = cane>, fillcolor="#e58139"] ;
381 -> 382 ;
383 [label=<gini = 0.0<br/>samples = 12<br/>value = [0, 12]<br/>class = cavallo>, fillcolor="#399de5"] ;
381 -> 383 ;
384 [label=<X<SUB>34319</SUB> &le; 0.811<br/>gini = 0.25<br/>samples = 314<br/>value = [268, 46]<br/>class = cane>, fillcolor="#e9975b"] ;
380 -> 384 ;
385 [label=<X<SUB>64984</SUB> &le; 0.837<br/>gini = 0.212<br/>samples = 298<br/>value = [262, 36]<br/>class = cane>, fillcolor="#e99254"] ;
384 -> 385 ;
386 [label=<X<SUB>175</SUB> &le; 0.046<br/>gini = 0.169<br/>samples = 279<br/>value = [253, 26]<br/>class = cane>, fillcolor="#e88e4d"] ;
385 -> 386 ;
387 [label=<gini = 0.0<br/>samples = 4<br/>value = [0, 4]<br/>class = cavallo>, fillcolor="#399de5"] ;
386 -> 387 ;
388 [label=<X<SUB>441</SUB> &le; 0.991<br/>gini = 0.147<br/>samples = 275<br/>value = [253, 22]<br/>class = cane>, fillcolor="#e78c4a"] ;
386 -> 388 ;
389 [label=<X<SUB>35675</SUB> &le; 0.838<br/>gini = 0.124<br/>samples = 270<br/>value = [252, 18]<br/>class = cane>, fillcolor="#e78a47"] ;
388 -> 389 ;
390 [label=<X<SUB>35416</SUB> &le; 0.034<br/>gini = 0.106<br/>samples = 267<br/>value = [252, 15]<br/>class = cane>, fillcolor="#e78845"] ;
389 -> 390 ;
391 [label=<gini = 0.0<br/>samples = 3<br/>value = [0, 3]<br/>class = cavallo>, fillcolor="#399de5"] ;
390 -> 391 ;
392 [label=<X<SUB>34423</SUB> &le; 0.03<br/>gini = 0.087<br/>samples = 264<br/>value = [252, 12]<br/>class = cane>, fillcolor="#e68742"] ;
390 -> 392 ;
393 [label=<gini = 0.0<br/>samples = 2<br/>value = [0, 2]<br/>class = cavallo>, fillcolor="#399de5"] ;
392 -> 393 ;
394 [label=<X<SUB>185</SUB> &le; 0.986<br/>gini = 0.073<br/>samples = 262<br/>value = [252, 10]<br/>class = cane>, fillcolor="#e68641"] ;
392 -> 394 ;
395 [label=<X<SUB>32642</SUB> &le; 0.029<br/>gini = 0.06<br/>samples = 260<br/>value = [252, 8]<br/>class = cane>, fillcolor="#e6853f"] ;
394 -> 395 ;
396 [label=<gini = 0.0<br/>samples = 2<br/>value = [0, 2]<br/>class = cavallo>, fillcolor="#399de5"] ;
395 -> 396 ;
397 [label=<X<SUB>54593</SUB> &le; 0.001<br/>gini = 0.045<br/>samples = 258<br/>value = [252, 6]<br/>class = cane>, fillcolor="#e6843e"] ;
395 -> 397 ;
398 [label=<gini = 0.0<br/>samples = 1<br/>value = [0, 1]<br/>class = cavallo>, fillcolor="#399de5"] ;
397 -> 398 ;
399 [label=<X<SUB>63752</SUB> &le; 0.943<br/>gini = 0.038<br/>samples = 257<br/>value = [252, 5]<br/>class = cane>, fillcolor="#e6843d"] ;
397 -> 399 ;
400 [label=<X<SUB>26226</SUB> &le; 0.97<br/>gini = 0.031<br/>samples = 256<br/>value = [252, 4]<br/>class = cane>, fillcolor="#e5833c"] ;
399 -> 400 ;
401 [label=<X<SUB>2753</SUB> &le; 0.991<br/>gini = 0.023<br/>samples = 255<br/>value = [252, 3]<br/>class = cane>, fillcolor="#e5823b"] ;
400 -> 401 ;
402 [label=<X<SUB>57947</SUB> &le; 0.011<br/>gini = 0.016<br/>samples = 254<br/>value = [252, 2]<br/>class = cane>, fillcolor="#e5823b"] ;
401 -> 402 ;
403 [label=<X<SUB>2510</SUB> &le; 0.654<br/>gini = 0.5<br/>samples = 2<br/>value = [1, 1]<br/>class = cane>, fillcolor="#ffffff"] ;
402 -> 403 ;
404 [label=<gini = 0.0<br/>samples = 1<br/>value = [0, 1]<br/>class = cavallo>, fillcolor="#399de5"] ;
403 -> 404 ;
405 [label=<gini = 0.0<br/>samples = 1<br/>value = [1, 0]<br/>class = cane>, fillcolor="#e58139"] ;
403 -> 405 ;
406 [label=<X<SUB>25999</SUB> &le; 0.042<br/>gini = 0.008<br/>samples = 252<br/>value = [251, 1]<br/>class = cane>, fillcolor="#e5823a"] ;
402 -> 406 ;
407 [label=<X<SUB>59250</SUB> &le; 0.367<br/>gini = 0.5<br/>samples = 2<br/>value = [1, 1]<br/>class = cane>, fillcolor="#ffffff"] ;
406 -> 407 ;
408 [label=<gini = 0.0<br/>samples = 1<br/>value = [1, 0]<br/>class = cane>, fillcolor="#e58139"] ;
407 -> 408 ;
409 [label=<gini = 0.0<br/>samples = 1<br/>value = [0, 1]<br/>class = cavallo>, fillcolor="#399de5"] ;
407 -> 409 ;
410 [label=<gini = 0.0<br/>samples = 250<br/>value = [250, 0]<br/>class = cane>, fillcolor="#e58139"] ;
406 -> 410 ;
411 [label=<gini = 0.0<br/>samples = 1<br/>value = [0, 1]<br/>class = cavallo>, fillcolor="#399de5"] ;
401 -> 411 ;
412 [label=<gini = 0.0<br/>samples = 1<br/>value = [0, 1]<br/>class = cavallo>, fillcolor="#399de5"] ;
400 -> 412 ;
413 [label=<gini = 0.0<br/>samples = 1<br/>value = [0, 1]<br/>class = cavallo>, fillcolor="#399de5"] ;
399 -> 413 ;
414 [label=<gini = 0.0<br/>samples = 2<br/>value = [0, 2]<br/>class = cavallo>, fillcolor="#399de5"] ;
394 -> 414 ;
415 [label=<gini = 0.0<br/>samples = 3<br/>value = [0, 3]<br/>class = cavallo>, fillcolor="#399de5"] ;
389 -> 415 ;
416 [label=<X<SUB>36714</SUB> &le; 0.67<br/>gini = 0.32<br/>samples = 5<br/>value = [1, 4]<br/>class = cavallo>, fillcolor="#6ab6ec"] ;
388 -> 416 ;
417 [label=<gini = 0.0<br/>samples = 4<br/>value = [0, 4]<br/>class = cavallo>, fillcolor="#399de5"] ;
416 -> 417 ;
418 [label=<gini = 0.0<br/>samples = 1<br/>value = [1, 0]<br/>class = cane>, fillcolor="#e58139"] ;
416 -> 418 ;
419 [label=<X<SUB>60497</SUB> &le; 0.74<br/>gini = 0.499<br/>samples = 19<br/>value = [9, 10]<br/>class = cavallo>, fillcolor="#ebf5fc"] ;
385 -> 419 ;
420 [label=<gini = 0.0<br/>samples = 9<br/>value = [0, 9]<br/>class = cavallo>, fillcolor="#399de5"] ;
419 -> 420 ;
421 [label=<X<SUB>27466</SUB> &le; 0.268<br/>gini = 0.18<br/>samples = 10<br/>value = [9, 1]<br/>class = cane>, fillcolor="#e88f4f"] ;
419 -> 421 ;
422 [label=<gini = 0.0<br/>samples = 1<br/>value = [0, 1]<br/>class = cavallo>, fillcolor="#399de5"] ;
421 -> 422 ;
423 [label=<gini = 0.0<br/>samples = 9<br/>value = [9, 0]<br/>class = cane>, fillcolor="#e58139"] ;
421 -> 423 ;
424 [label=<X<SUB>49677</SUB> &le; 0.379<br/>gini = 0.469<br/>samples = 16<br/>value = [6, 10]<br/>class = cavallo>, fillcolor="#b0d8f5"] ;
384 -> 424 ;
425 [label=<gini = 0.0<br/>samples = 6<br/>value = [6, 0]<br/>class = cane>, fillcolor="#e58139"] ;
424 -> 425 ;
426 [label=<gini = 0.0<br/>samples = 10<br/>value = [0, 10]<br/>class = cavallo>, fillcolor="#399de5"] ;
424 -> 426 ;
427 [label=<X<SUB>39329</SUB> &le; 0.065<br/>gini = 0.224<br/>samples = 842<br/>value = [734, 108]<br/>class = cane>, fillcolor="#e99456"] ;
331 -> 427 ;
428 [label=<X<SUB>27654</SUB> &le; 0.267<br/>gini = 0.415<br/>samples = 17<br/>value = [5, 12]<br/>class = cavallo>, fillcolor="#8bc6f0"] ;
427 -> 428 ;
429 [label=<gini = 0.0<br/>samples = 5<br/>value = [5, 0]<br/>class = cane>, fillcolor="#e58139"] ;
428 -> 429 ;
430 [label=<gini = 0.0<br/>samples = 12<br/>value = [0, 12]<br/>class = cavallo>, fillcolor="#399de5"] ;
428 -> 430 ;
431 [label=<X<SUB>57130</SUB> &le; 0.58<br/>gini = 0.206<br/>samples = 825<br/>value = [729, 96]<br/>class = cane>, fillcolor="#e89253"] ;
427 -> 431 ;
432 [label=<X<SUB>36611</SUB> &le; 0.059<br/>gini = 0.119<br/>samples = 566<br/>value = [530, 36]<br/>class = cane>, fillcolor="#e78a46"] ;
431 -> 432 ;
433 [label=<X<SUB>20037</SUB> &le; 0.697<br/>gini = 0.49<br/>samples = 14<br/>value = [6, 8]<br/>class = cavallo>, fillcolor="#cee6f8"] ;
432 -> 433 ;
434 [label=<gini = 0.0<br/>samples = 8<br/>value = [0, 8]<br/>class = cavallo>, fillcolor="#399de5"] ;
433 -> 434 ;
435 [label=<gini = 0.0<br/>samples = 6<br/>value = [6, 0]<br/>class = cane>, fillcolor="#e58139"] ;
433 -> 435 ;
436 [label=<X<SUB>3967</SUB> &le; 0.931<br/>gini = 0.096<br/>samples = 552<br/>value = [524, 28]<br/>class = cane>, fillcolor="#e68844"] ;
432 -> 436 ;
437 [label=<X<SUB>45651</SUB> &le; 0.046<br/>gini = 0.084<br/>samples = 548<br/>value = [524, 24]<br/>class = cane>, fillcolor="#e68742"] ;
436 -> 437 ;
438 [label=<gini = 0.0<br/>samples = 3<br/>value = [0, 3]<br/>class = cavallo>, fillcolor="#399de5"] ;
437 -> 438 ;
439 [label=<X<SUB>56085</SUB> &le; 0.059<br/>gini = 0.074<br/>samples = 545<br/>value = [524, 21]<br/>class = cane>, fillcolor="#e68641"] ;
437 -> 439 ;
440 [label=<X<SUB>10192</SUB> &le; 0.216<br/>gini = 0.49<br/>samples = 7<br/>value = [3, 4]<br/>class = cavallo>, fillcolor="#cee6f8"] ;
439 -> 440 ;
441 [label=<gini = 0.0<br/>samples = 3<br/>value = [3, 0]<br/>class = cane>, fillcolor="#e58139"] ;
440 -> 441 ;
442 [label=<gini = 0.0<br/>samples = 4<br/>value = [0, 4]<br/>class = cavallo>, fillcolor="#399de5"] ;
440 -> 442 ;
443 [label=<X<SUB>19757</SUB> &le; 0.887<br/>gini = 0.061<br/>samples = 538<br/>value = [521, 17]<br/>class = cane>, fillcolor="#e6853f"] ;
439 -> 443 ;
444 [label=<X<SUB>32189</SUB> &le; 0.004<br/>gini = 0.048<br/>samples = 531<br/>value = [518, 13]<br/>class = cane>, fillcolor="#e6843e"] ;
443 -> 444 ;
445 [label=<gini = 0.0<br/>samples = 2<br/>value = [0, 2]<br/>class = cavallo>, fillcolor="#399de5"] ;
444 -> 445 ;
446 [label=<X<SUB>34402</SUB> &le; 0.982<br/>gini = 0.041<br/>samples = 529<br/>value = [518, 11]<br/>class = cane>, fillcolor="#e6843d"] ;
444 -> 446 ;
447 [label=<X<SUB>18463</SUB> &le; 0.99<br/>gini = 0.034<br/>samples = 526<br/>value = [517, 9]<br/>class = cane>, fillcolor="#e5833c"] ;
446 -> 447 ;
448 [label=<X<SUB>27819</SUB> &le; 0.993<br/>gini = 0.03<br/>samples = 525<br/>value = [517, 8]<br/>class = cane>, fillcolor="#e5833c"] ;
447 -> 448 ;
449 [label=<X<SUB>38527</SUB> &le; 0.023<br/>gini = 0.026<br/>samples = 524<br/>value = [517, 7]<br/>class = cane>, fillcolor="#e5833c"] ;
448 -> 449 ;
450 [label=<gini = 0.0<br/>samples = 1<br/>value = [0, 1]<br/>class = cavallo>, fillcolor="#399de5"] ;
449 -> 450 ;
451 [label=<X<SUB>12965</SUB> &le; 0.953<br/>gini = 0.023<br/>samples = 523<br/>value = [517, 6]<br/>class = cane>, fillcolor="#e5823b"] ;
449 -> 451 ;
452 [label=<X<SUB>42578</SUB> &le; 0.016<br/>gini = 0.019<br/>samples = 522<br/>value = [517, 5]<br/>class = cane>, fillcolor="#e5823b"] ;
451 -> 452 ;
453 [label=<gini = 0.0<br/>samples = 1<br/>value = [0, 1]<br/>class = cavallo>, fillcolor="#399de5"] ;
452 -> 453 ;
454 [label=<X<SUB>55230</SUB> &le; 0.032<br/>gini = 0.015<br/>samples = 521<br/>value = [517, 4]<br/>class = cane>, fillcolor="#e5823b"] ;
452 -> 454 ;
455 [label=<gini = 0.0<br/>samples = 1<br/>value = [0, 1]<br/>class = cavallo>, fillcolor="#399de5"] ;
454 -> 455 ;
456 [label=<X<SUB>47078</SUB> &le; 0.003<br/>gini = 0.011<br/>samples = 520<br/>value = [517, 3]<br/>class = cane>, fillcolor="#e5823a"] ;
454 -> 456 ;
457 [label=<gini = 0.0<br/>samples = 1<br/>value = [0, 1]<br/>class = cavallo>, fillcolor="#399de5"] ;
456 -> 457 ;
458 [label=<X<SUB>46902</SUB> &le; 0.968<br/>gini = 0.008<br/>samples = 519<br/>value = [517, 2]<br/>class = cane>, fillcolor="#e5813a"] ;
456 -> 458 ;
459 [label=<X<SUB>41583</SUB> &le; 0.435<br/>gini = 0.004<br/>samples = 518<br/>value = [517, 1]<br/>class = cane>, fillcolor="#e58139"] ;
458 -> 459 ;
460 [label=<X<SUB>2871</SUB> &le; 0.533<br/>gini = 0.375<br/>samples = 4<br/>value = [3, 1]<br/>class = cane>, fillcolor="#eeab7b"] ;
459 -> 460 ;
461 [label=<gini = 0.0<br/>samples = 3<br/>value = [3, 0]<br/>class = cane>, fillcolor="#e58139"] ;
460 -> 461 ;
462 [label=<gini = 0.0<br/>samples = 1<br/>value = [0, 1]<br/>class = cavallo>, fillcolor="#399de5"] ;
460 -> 462 ;
463 [label=<gini = 0.0<br/>samples = 514<br/>value = [514, 0]<br/>class = cane>, fillcolor="#e58139"] ;
459 -> 463 ;
464 [label=<gini = 0.0<br/>samples = 1<br/>value = [0, 1]<br/>class = cavallo>, fillcolor="#399de5"] ;
458 -> 464 ;
465 [label=<gini = 0.0<br/>samples = 1<br/>value = [0, 1]<br/>class = cavallo>, fillcolor="#399de5"] ;
451 -> 465 ;
466 [label=<gini = 0.0<br/>samples = 1<br/>value = [0, 1]<br/>class = cavallo>, fillcolor="#399de5"] ;
448 -> 466 ;
467 [label=<gini = 0.0<br/>samples = 1<br/>value = [0, 1]<br/>class = cavallo>, fillcolor="#399de5"] ;
447 -> 467 ;
468 [label=<X<SUB>66086</SUB> &le; 0.117<br/>gini = 0.444<br/>samples = 3<br/>value = [1, 2]<br/>class = cavallo>, fillcolor="#9ccef2"] ;
446 -> 468 ;
469 [label=<gini = 0.0<br/>samples = 1<br/>value = [1, 0]<br/>class = cane>, fillcolor="#e58139"] ;
468 -> 469 ;
470 [label=<gini = 0.0<br/>samples = 2<br/>value = [0, 2]<br/>class = cavallo>, fillcolor="#399de5"] ;
468 -> 470 ;
471 [label=<X<SUB>29095</SUB> &le; 0.927<br/>gini = 0.49<br/>samples = 7<br/>value = [3, 4]<br/>class = cavallo>, fillcolor="#cee6f8"] ;
443 -> 471 ;
472 [label=<gini = 0.0<br/>samples = 4<br/>value = [0, 4]<br/>class = cavallo>, fillcolor="#399de5"] ;
471 -> 472 ;
473 [label=<gini = 0.0<br/>samples = 3<br/>value = [3, 0]<br/>class = cane>, fillcolor="#e58139"] ;
471 -> 473 ;
474 [label=<gini = 0.0<br/>samples = 4<br/>value = [0, 4]<br/>class = cavallo>, fillcolor="#399de5"] ;
436 -> 474 ;
475 [label=<X<SUB>19221</SUB> &le; 0.593<br/>gini = 0.356<br/>samples = 259<br/>value = [199, 60]<br/>class = cane>, fillcolor="#eda775"] ;
431 -> 475 ;
476 [label=<X<SUB>63649</SUB> &le; 0.502<br/>gini = 0.462<br/>samples = 146<br/>value = [93, 53]<br/>class = cane>, fillcolor="#f4c9aa"] ;
475 -> 476 ;
477 [label=<X<SUB>35303</SUB> &le; 0.174<br/>gini = 0.122<br/>samples = 46<br/>value = [43, 3]<br/>class = cane>, fillcolor="#e78a47"] ;
476 -> 477 ;
478 [label=<gini = 0.0<br/>samples = 3<br/>value = [0, 3]<br/>class = cavallo>, fillcolor="#399de5"] ;
477 -> 478 ;
479 [label=<gini = 0.0<br/>samples = 43<br/>value = [43, 0]<br/>class = cane>, fillcolor="#e58139"] ;
477 -> 479 ;
480 [label=<X<SUB>53042</SUB> &le; 0.698<br/>gini = 0.5<br/>samples = 100<br/>value = [50, 50]<br/>class = cane>, fillcolor="#ffffff"] ;
476 -> 480 ;
481 [label=<X<SUB>53900</SUB> &le; 0.4<br/>gini = 0.475<br/>samples = 80<br/>value = [31, 49]<br/>class = cavallo>, fillcolor="#b6dbf5"] ;
480 -> 481 ;
482 [label=<X<SUB>57303</SUB> &le; 0.809<br/>gini = 0.355<br/>samples = 26<br/>value = [20, 6]<br/>class = cane>, fillcolor="#eda774"] ;
481 -> 482 ;
483 [label=<gini = 0.0<br/>samples = 20<br/>value = [20, 0]<br/>class = cane>, fillcolor="#e58139"] ;
482 -> 483 ;
484 [label=<gini = 0.0<br/>samples = 6<br/>value = [0, 6]<br/>class = cavallo>, fillcolor="#399de5"] ;
482 -> 484 ;
485 [label=<X<SUB>35284</SUB> &le; 0.866<br/>gini = 0.324<br/>samples = 54<br/>value = [11, 43]<br/>class = cavallo>, fillcolor="#6cb6ec"] ;
481 -> 485 ;
486 [label=<X<SUB>16505</SUB> &le; 0.119<br/>gini = 0.215<br/>samples = 49<br/>value = [6, 43]<br/>class = cavallo>, fillcolor="#55abe9"] ;
485 -> 486 ;
487 [label=<X<SUB>64824</SUB> &le; 0.771<br/>gini = 0.32<br/>samples = 5<br/>value = [4, 1]<br/>class = cane>, fillcolor="#eca06a"] ;
486 -> 487 ;
488 [label=<gini = 0.0<br/>samples = 4<br/>value = [4, 0]<br/>class = cane>, fillcolor="#e58139"] ;
487 -> 488 ;
489 [label=<gini = 0.0<br/>samples = 1<br/>value = [0, 1]<br/>class = cavallo>, fillcolor="#399de5"] ;
487 -> 489 ;
490 [label=<X<SUB>40576</SUB> &le; 0.06<br/>gini = 0.087<br/>samples = 44<br/>value = [2, 42]<br/>class = cavallo>, fillcolor="#42a2e6"] ;
486 -> 490 ;
491 [label=<gini = 0.0<br/>samples = 2<br/>value = [2, 0]<br/>class = cane>, fillcolor="#e58139"] ;
490 -> 491 ;
492 [label=<gini = 0.0<br/>samples = 42<br/>value = [0, 42]<br/>class = cavallo>, fillcolor="#399de5"] ;
490 -> 492 ;
493 [label=<gini = 0.0<br/>samples = 5<br/>value = [5, 0]<br/>class = cane>, fillcolor="#e58139"] ;
485 -> 493 ;
494 [label=<X<SUB>36740</SUB> &le; 0.104<br/>gini = 0.095<br/>samples = 20<br/>value = [19, 1]<br/>class = cane>, fillcolor="#e68843"] ;
480 -> 494 ;
495 [label=<gini = 0.0<br/>samples = 1<br/>value = [0, 1]<br/>class = cavallo>, fillcolor="#399de5"] ;
494 -> 495 ;
496 [label=<gini = 0.0<br/>samples = 19<br/>value = [19, 0]<br/>class = cane>, fillcolor="#e58139"] ;
494 -> 496 ;
497 [label=<X<SUB>25120</SUB> &le; 0.061<br/>gini = 0.116<br/>samples = 113<br/>value = [106, 7]<br/>class = cane>, fillcolor="#e78946"] ;
475 -> 497 ;
498 [label=<gini = 0.0<br/>samples = 3<br/>value = [0, 3]<br/>class = cavallo>, fillcolor="#399de5"] ;
497 -> 498 ;
499 [label=<X<SUB>16284</SUB> &le; 0.977<br/>gini = 0.07<br/>samples = 110<br/>value = [106, 4]<br/>class = cane>, fillcolor="#e68640"] ;
497 -> 499 ;
500 [label=<X<SUB>32931</SUB> &le; 0.148<br/>gini = 0.036<br/>samples = 108<br/>value = [106, 2]<br/>class = cane>, fillcolor="#e5833d"] ;
499 -> 500 ;
501 [label=<X<SUB>57165</SUB> &le; 0.788<br/>gini = 0.444<br/>samples = 3<br/>value = [1, 2]<br/>class = cavallo>, fillcolor="#9ccef2"] ;
500 -> 501 ;
502 [label=<gini = 0.0<br/>samples = 2<br/>value = [0, 2]<br/>class = cavallo>, fillcolor="#399de5"] ;
501 -> 502 ;
503 [label=<gini = 0.0<br/>samples = 1<br/>value = [1, 0]<br/>class = cane>, fillcolor="#e58139"] ;
501 -> 503 ;
504 [label=<gini = 0.0<br/>samples = 105<br/>value = [105, 0]<br/>class = cane>, fillcolor="#e58139"] ;
500 -> 504 ;
505 [label=<gini = 0.0<br/>samples = 2<br/>value = [0, 2]<br/>class = cavallo>, fillcolor="#399de5"] ;
499 -> 505 ;
506 [label=<X<SUB>52658</SUB> &le; 0.64<br/>gini = 0.5<br/>samples = 1410<br/>value = [704, 706]<br/>class = cavallo>, fillcolor="#feffff"] ;
0 -> 506 [labeldistance=2.5, labelangle=-45, headlabel="False"] ;
507 [label=<X<SUB>34574</SUB> &le; 0.442<br/>gini = 0.434<br/>samples = 849<br/>value = [270, 579]<br/>class = cavallo>, fillcolor="#95cbf1"] ;
506 -> 507 ;
508 [label=<X<SUB>66405</SUB> &le; 0.262<br/>gini = 0.35<br/>samples = 565<br/>value = [128, 437]<br/>class = cavallo>, fillcolor="#73baed"] ;
507 -> 508 ;
509 [label=<X<SUB>30112</SUB> &le; 0.425<br/>gini = 0.493<br/>samples = 68<br/>value = [38, 30]<br/>class = cane>, fillcolor="#fae4d5"] ;
508 -> 509 ;
510 [label=<X<SUB>17295</SUB> &le; 0.198<br/>gini = 0.382<br/>samples = 35<br/>value = [9, 26]<br/>class = cavallo>, fillcolor="#7ebfee"] ;
509 -> 510 ;
511 [label=<gini = 0.0<br/>samples = 8<br/>value = [8, 0]<br/>class = cane>, fillcolor="#e58139"] ;
510 -> 511 ;
512 [label=<X<SUB>2446</SUB> &le; 0.528<br/>gini = 0.071<br/>samples = 27<br/>value = [1, 26]<br/>class = cavallo>, fillcolor="#41a1e6"] ;
510 -> 512 ;
513 [label=<gini = 0.0<br/>samples = 1<br/>value = [1, 0]<br/>class = cane>, fillcolor="#e58139"] ;
512 -> 513 ;
514 [label=<gini = 0.0<br/>samples = 26<br/>value = [0, 26]<br/>class = cavallo>, fillcolor="#399de5"] ;
512 -> 514 ;
515 [label=<X<SUB>46410</SUB> &le; 0.109<br/>gini = 0.213<br/>samples = 33<br/>value = [29, 4]<br/>class = cane>, fillcolor="#e99254"] ;
509 -> 515 ;
516 [label=<gini = 0.0<br/>samples = 3<br/>value = [0, 3]<br/>class = cavallo>, fillcolor="#399de5"] ;
515 -> 516 ;
517 [label=<X<SUB>7627</SUB> &le; 0.988<br/>gini = 0.064<br/>samples = 30<br/>value = [29, 1]<br/>class = cane>, fillcolor="#e68540"] ;
515 -> 517 ;
518 [label=<gini = 0.0<br/>samples = 29<br/>value = [29, 0]<br/>class = cane>, fillcolor="#e58139"] ;
517 -> 518 ;
519 [label=<gini = 0.0<br/>samples = 1<br/>value = [0, 1]<br/>class = cavallo>, fillcolor="#399de5"] ;
517 -> 519 ;
520 [label=<X<SUB>602</SUB> &le; 0.854<br/>gini = 0.297<br/>samples = 497<br/>value = [90, 407]<br/>class = cavallo>, fillcolor="#65b3eb"] ;
508 -> 520 ;
521 [label=<X<SUB>25082</SUB> &le; 0.298<br/>gini = 0.449<br/>samples = 156<br/>value = [53, 103]<br/>class = cavallo>, fillcolor="#9fcff2"] ;
520 -> 521 ;
522 [label=<X<SUB>2848</SUB> &le; 0.841<br/>gini = 0.268<br/>samples = 94<br/>value = [15, 79]<br/>class = cavallo>, fillcolor="#5fb0ea"] ;
521 -> 522 ;
523 [label=<X<SUB>66286</SUB> &le; 0.174<br/>gini = 0.136<br/>samples = 82<br/>value = [6, 76]<br/>class = cavallo>, fillcolor="#49a5e7"] ;
522 -> 523 ;
524 [label=<X<SUB>45831</SUB> &le; 0.838<br/>gini = 0.32<br/>samples = 5<br/>value = [4, 1]<br/>class = cane>, fillcolor="#eca06a"] ;
523 -> 524 ;
525 [label=<gini = 0.0<br/>samples = 4<br/>value = [4, 0]<br/>class = cane>, fillcolor="#e58139"] ;
524 -> 525 ;
526 [label=<gini = 0.0<br/>samples = 1<br/>value = [0, 1]<br/>class = cavallo>, fillcolor="#399de5"] ;
524 -> 526 ;
527 [label=<X<SUB>34029</SUB> &le; 0.818<br/>gini = 0.051<br/>samples = 77<br/>value = [2, 75]<br/>class = cavallo>, fillcolor="#3ea0e6"] ;
523 -> 527 ;
528 [label=<gini = 0.0<br/>samples = 75<br/>value = [0, 75]<br/>class = cavallo>, fillcolor="#399de5"] ;
527 -> 528 ;
529 [label=<gini = 0.0<br/>samples = 2<br/>value = [2, 0]<br/>class = cane>, fillcolor="#e58139"] ;
527 -> 529 ;
530 [label=<X<SUB>6472</SUB> &le; 0.901<br/>gini = 0.375<br/>samples = 12<br/>value = [9, 3]<br/>class = cane>, fillcolor="#eeab7b"] ;
522 -> 530 ;
531 [label=<gini = 0.0<br/>samples = 9<br/>value = [9, 0]<br/>class = cane>, fillcolor="#e58139"] ;
530 -> 531 ;
532 [label=<gini = 0.0<br/>samples = 3<br/>value = [0, 3]<br/>class = cavallo>, fillcolor="#399de5"] ;
530 -> 532 ;
533 [label=<X<SUB>3798</SUB> &le; 0.382<br/>gini = 0.475<br/>samples = 62<br/>value = [38, 24]<br/>class = cane>, fillcolor="#f5d1b6"] ;
521 -> 533 ;
534 [label=<X<SUB>25785</SUB> &le; 0.157<br/>gini = 0.33<br/>samples = 24<br/>value = [5, 19]<br/>class = cavallo>, fillcolor="#6db7ec"] ;
533 -> 534 ;
535 [label=<gini = 0.0<br/>samples = 5<br/>value = [5, 0]<br/>class = cane>, fillcolor="#e58139"] ;
534 -> 535 ;
536 [label=<gini = 0.0<br/>samples = 19<br/>value = [0, 19]<br/>class = cavallo>, fillcolor="#399de5"] ;
534 -> 536 ;
537 [label=<X<SUB>39923</SUB> &le; 0.484<br/>gini = 0.229<br/>samples = 38<br/>value = [33, 5]<br/>class = cane>, fillcolor="#e99457"] ;
533 -> 537 ;
538 [label=<X<SUB>51399</SUB> &le; 0.069<br/>gini = 0.057<br/>samples = 34<br/>value = [33, 1]<br/>class = cane>, fillcolor="#e6853f"] ;
537 -> 538 ;
539 [label=<gini = 0.0<br/>samples = 1<br/>value = [0, 1]<br/>class = cavallo>, fillcolor="#399de5"] ;
538 -> 539 ;
540 [label=<gini = 0.0<br/>samples = 33<br/>value = [33, 0]<br/>class = cane>, fillcolor="#e58139"] ;
538 -> 540 ;
541 [label=<gini = 0.0<br/>samples = 4<br/>value = [0, 4]<br/>class = cavallo>, fillcolor="#399de5"] ;
537 -> 541 ;
542 [label=<X<SUB>50687</SUB> &le; 0.015<br/>gini = 0.193<br/>samples = 341<br/>value = [37, 304]<br/>class = cavallo>, fillcolor="#51a9e8"] ;
520 -> 542 ;
543 [label=<gini = 0.0<br/>samples = 6<br/>value = [6, 0]<br/>class = cane>, fillcolor="#e58139"] ;
542 -> 543 ;
544 [label=<X<SUB>42087</SUB> &le; 0.902<br/>gini = 0.168<br/>samples = 335<br/>value = [31, 304]<br/>class = cavallo>, fillcolor="#4da7e8"] ;
542 -> 544 ;
545 [label=<X<SUB>67262</SUB> &le; 0.07<br/>gini = 0.132<br/>samples = 324<br/>value = [23, 301]<br/>class = cavallo>, fillcolor="#48a4e7"] ;
544 -> 545 ;
546 [label=<gini = 0.0<br/>samples = 3<br/>value = [3, 0]<br/>class = cane>, fillcolor="#e58139"] ;
545 -> 546 ;
547 [label=<X<SUB>26870</SUB> &le; 0.04<br/>gini = 0.117<br/>samples = 321<br/>value = [20, 301]<br/>class = cavallo>, fillcolor="#46a4e7"] ;
545 -> 547 ;
548 [label=<X<SUB>40039</SUB> &le; 0.325<br/>gini = 0.444<br/>samples = 6<br/>value = [4, 2]<br/>class = cane>, fillcolor="#f2c09c"] ;
547 -> 548 ;
549 [label=<gini = 0.0<br/>samples = 4<br/>value = [4, 0]<br/>class = cane>, fillcolor="#e58139"] ;
548 -> 549 ;
550 [label=<gini = 0.0<br/>samples = 2<br/>value = [0, 2]<br/>class = cavallo>, fillcolor="#399de5"] ;
548 -> 550 ;
551 [label=<X<SUB>19185</SUB> &le; 0.989<br/>gini = 0.096<br/>samples = 315<br/>value = [16, 299]<br/>class = cavallo>, fillcolor="#44a2e6"] ;
547 -> 551 ;
552 [label=<X<SUB>1945</SUB> &le; 0.26<br/>gini = 0.08<br/>samples = 311<br/>value = [13, 298]<br/>class = cavallo>, fillcolor="#42a1e6"] ;
551 -> 552 ;
553 [label=<gini = 0.0<br/>samples = 2<br/>value = [2, 0]<br/>class = cane>, fillcolor="#e58139"] ;
552 -> 553 ;
554 [label=<X<SUB>11529</SUB> &le; 0.99<br/>gini = 0.069<br/>samples = 309<br/>value = [11, 298]<br/>class = cavallo>, fillcolor="#40a1e6"] ;
552 -> 554 ;
555 [label=<X<SUB>45332</SUB> &le; 0.818<br/>gini = 0.057<br/>samples = 307<br/>value = [9, 298]<br/>class = cavallo>, fillcolor="#3fa0e6"] ;
554 -> 555 ;
556 [label=<X<SUB>44504</SUB> &le; 0.679<br/>gini = 0.045<br/>samples = 305<br/>value = [7, 298]<br/>class = cavallo>, fillcolor="#3e9fe6"] ;
555 -> 556 ;
557 [label=<X<SUB>37152</SUB> &le; 0.978<br/>gini = 0.014<br/>samples = 289<br/>value = [2, 287]<br/>class = cavallo>, fillcolor="#3a9ee5"] ;
556 -> 557 ;
558 [label=<X<SUB>30317</SUB> &le; 0.008<br/>gini = 0.007<br/>samples = 288<br/>value = [1, 287]<br/>class = cavallo>, fillcolor="#3a9de5"] ;
557 -> 558 ;
559 [label=<gini = 0.0<br/>samples = 1<br/>value = [1, 0]<br/>class = cane>, fillcolor="#e58139"] ;
558 -> 559 ;
560 [label=<gini = 0.0<br/>samples = 287<br/>value = [0, 287]<br/>class = cavallo>, fillcolor="#399de5"] ;
558 -> 560 ;
561 [label=<gini = 0.0<br/>samples = 1<br/>value = [1, 0]<br/>class = cane>, fillcolor="#e58139"] ;
557 -> 561 ;
562 [label=<X<SUB>46616</SUB> &le; 0.575<br/>gini = 0.43<br/>samples = 16<br/>value = [5, 11]<br/>class = cavallo>, fillcolor="#93caf1"] ;
556 -> 562 ;
563 [label=<gini = 0.0<br/>samples = 5<br/>value = [5, 0]<br/>class = cane>, fillcolor="#e58139"] ;
562 -> 563 ;
564 [label=<gini = 0.0<br/>samples = 11<br/>value = [0, 11]<br/>class = cavallo>, fillcolor="#399de5"] ;
562 -> 564 ;
565 [label=<gini = 0.0<br/>samples = 2<br/>value = [2, 0]<br/>class = cane>, fillcolor="#e58139"] ;
555 -> 565 ;
566 [label=<gini = 0.0<br/>samples = 2<br/>value = [2, 0]<br/>class = cane>, fillcolor="#e58139"] ;
554 -> 566 ;
567 [label=<X<SUB>52409</SUB> &le; 0.109<br/>gini = 0.375<br/>samples = 4<br/>value = [3, 1]<br/>class = cane>, fillcolor="#eeab7b"] ;
551 -> 567 ;
568 [label=<gini = 0.0<br/>samples = 1<br/>value = [0, 1]<br/>class = cavallo>, fillcolor="#399de5"] ;
567 -> 568 ;
569 [label=<gini = 0.0<br/>samples = 3<br/>value = [3, 0]<br/>class = cane>, fillcolor="#e58139"] ;
567 -> 569 ;
570 [label=<X<SUB>38049</SUB> &le; 0.355<br/>gini = 0.397<br/>samples = 11<br/>value = [8, 3]<br/>class = cane>, fillcolor="#efb083"] ;
544 -> 570 ;
571 [label=<gini = 0.0<br/>samples = 3<br/>value = [0, 3]<br/>class = cavallo>, fillcolor="#399de5"] ;
570 -> 571 ;
572 [label=<gini = 0.0<br/>samples = 8<br/>value = [8, 0]<br/>class = cane>, fillcolor="#e58139"] ;
570 -> 572 ;
573 [label=<X<SUB>56380</SUB> &le; 0.356<br/>gini = 0.5<br/>samples = 284<br/>value = [142, 142]<br/>class = cane>, fillcolor="#ffffff"] ;
507 -> 573 ;
574 [label=<X<SUB>54464</SUB> &le; 0.094<br/>gini = 0.38<br/>samples = 90<br/>value = [67, 23]<br/>class = cane>, fillcolor="#eeac7d"] ;
573 -> 574 ;
575 [label=<X<SUB>9339</SUB> &le; 0.953<br/>gini = 0.18<br/>samples = 10<br/>value = [1, 9]<br/>class = cavallo>, fillcolor="#4fa8e8"] ;
574 -> 575 ;
576 [label=<gini = 0.0<br/>samples = 9<br/>value = [0, 9]<br/>class = cavallo>, fillcolor="#399de5"] ;
575 -> 576 ;
577 [label=<gini = 0.0<br/>samples = 1<br/>value = [1, 0]<br/>class = cane>, fillcolor="#e58139"] ;
575 -> 577 ;
578 [label=<X<SUB>62250</SUB> &le; 0.171<br/>gini = 0.289<br/>samples = 80<br/>value = [66, 14]<br/>class = cane>, fillcolor="#eb9c63"] ;
574 -> 578 ;
579 [label=<gini = 0.0<br/>samples = 5<br/>value = [0, 5]<br/>class = cavallo>, fillcolor="#399de5"] ;
578 -> 579 ;
580 [label=<X<SUB>51016</SUB> &le; 0.766<br/>gini = 0.211<br/>samples = 75<br/>value = [66, 9]<br/>class = cane>, fillcolor="#e99254"] ;
578 -> 580 ;
581 [label=<X<SUB>3705</SUB> &le; 0.411<br/>gini = 0.133<br/>samples = 70<br/>value = [65, 5]<br/>class = cane>, fillcolor="#e78b48"] ;
580 -> 581 ;
582 [label=<X<SUB>54762</SUB> &le; 0.362<br/>gini = 0.496<br/>samples = 11<br/>value = [6, 5]<br/>class = cane>, fillcolor="#fbeade"] ;
581 -> 582 ;
583 [label=<gini = 0.0<br/>samples = 6<br/>value = [6, 0]<br/>class = cane>, fillcolor="#e58139"] ;
582 -> 583 ;
584 [label=<gini = 0.0<br/>samples = 5<br/>value = [0, 5]<br/>class = cavallo>, fillcolor="#399de5"] ;
582 -> 584 ;
585 [label=<gini = 0.0<br/>samples = 59<br/>value = [59, 0]<br/>class = cane>, fillcolor="#e58139"] ;
581 -> 585 ;
586 [label=<X<SUB>9418</SUB> &le; 0.936<br/>gini = 0.32<br/>samples = 5<br/>value = [1, 4]<br/>class = cavallo>, fillcolor="#6ab6ec"] ;
580 -> 586 ;
587 [label=<gini = 0.0<br/>samples = 4<br/>value = [0, 4]<br/>class = cavallo>, fillcolor="#399de5"] ;
586 -> 587 ;
588 [label=<gini = 0.0<br/>samples = 1<br/>value = [1, 0]<br/>class = cane>, fillcolor="#e58139"] ;
586 -> 588 ;
589 [label=<X<SUB>1511</SUB> &le; 0.856<br/>gini = 0.474<br/>samples = 194<br/>value = [75, 119]<br/>class = cavallo>, fillcolor="#b6dbf5"] ;
573 -> 589 ;
590 [label=<X<SUB>12959</SUB> &le; 0.307<br/>gini = 0.454<br/>samples = 66<br/>value = [43, 23]<br/>class = cane>, fillcolor="#f3c4a3"] ;
589 -> 590 ;
591 [label=<X<SUB>32707</SUB> &le; 0.169<br/>gini = 0.305<br/>samples = 16<br/>value = [3, 13]<br/>class = cavallo>, fillcolor="#67b4eb"] ;
590 -> 591 ;
592 [label=<gini = 0.0<br/>samples = 3<br/>value = [3, 0]<br/>class = cane>, fillcolor="#e58139"] ;
591 -> 592 ;
593 [label=<gini = 0.0<br/>samples = 13<br/>value = [0, 13]<br/>class = cavallo>, fillcolor="#399de5"] ;
591 -> 593 ;
594 [label=<X<SUB>13889</SUB> &le; 0.98<br/>gini = 0.32<br/>samples = 50<br/>value = [40, 10]<br/>class = cane>, fillcolor="#eca06a"] ;
590 -> 594 ;
595 [label=<X<SUB>56738</SUB> &le; 0.117<br/>gini = 0.198<br/>samples = 45<br/>value = [40, 5]<br/>class = cane>, fillcolor="#e89152"] ;
594 -> 595 ;
596 [label=<gini = 0.0<br/>samples = 3<br/>value = [0, 3]<br/>class = cavallo>, fillcolor="#399de5"] ;
595 -> 596 ;
597 [label=<X<SUB>10984</SUB> &le; 0.172<br/>gini = 0.091<br/>samples = 42<br/>value = [40, 2]<br/>class = cane>, fillcolor="#e68743"] ;
595 -> 597 ;
598 [label=<gini = 0.0<br/>samples = 1<br/>value = [0, 1]<br/>class = cavallo>, fillcolor="#399de5"] ;
597 -> 598 ;
599 [label=<X<SUB>736</SUB> &le; 0.989<br/>gini = 0.048<br/>samples = 41<br/>value = [40, 1]<br/>class = cane>, fillcolor="#e6843e"] ;
597 -> 599 ;
600 [label=<gini = 0.0<br/>samples = 40<br/>value = [40, 0]<br/>class = cane>, fillcolor="#e58139"] ;
599 -> 600 ;
601 [label=<gini = 0.0<br/>samples = 1<br/>value = [0, 1]<br/>class = cavallo>, fillcolor="#399de5"] ;
599 -> 601 ;
602 [label=<gini = 0.0<br/>samples = 5<br/>value = [0, 5]<br/>class = cavallo>, fillcolor="#399de5"] ;
594 -> 602 ;
603 [label=<X<SUB>24360</SUB> &le; 0.907<br/>gini = 0.375<br/>samples = 128<br/>value = [32, 96]<br/>class = cavallo>, fillcolor="#7bbeee"] ;
589 -> 603 ;
604 [label=<X<SUB>29044</SUB> &le; 0.545<br/>gini = 0.285<br/>samples = 116<br/>value = [20, 96]<br/>class = cavallo>, fillcolor="#62b1ea"] ;
603 -> 604 ;
605 [label=<X<SUB>43395</SUB> &le; 0.083<br/>gini = 0.153<br/>samples = 96<br/>value = [8, 88]<br/>class = cavallo>, fillcolor="#4ba6e7"] ;
604 -> 605 ;
606 [label=<X<SUB>23041</SUB> &le; 0.852<br/>gini = 0.278<br/>samples = 6<br/>value = [5, 1]<br/>class = cane>, fillcolor="#ea9a61"] ;
605 -> 606 ;
607 [label=<gini = 0.0<br/>samples = 5<br/>value = [5, 0]<br/>class = cane>, fillcolor="#e58139"] ;
606 -> 607 ;
608 [label=<gini = 0.0<br/>samples = 1<br/>value = [0, 1]<br/>class = cavallo>, fillcolor="#399de5"] ;
606 -> 608 ;
609 [label=<X<SUB>27467</SUB> &le; 0.104<br/>gini = 0.064<br/>samples = 90<br/>value = [3, 87]<br/>class = cavallo>, fillcolor="#40a0e6"] ;
605 -> 609 ;
610 [label=<gini = 0.0<br/>samples = 2<br/>value = [2, 0]<br/>class = cane>, fillcolor="#e58139"] ;
609 -> 610 ;
611 [label=<X<SUB>55480</SUB> &le; 0.232<br/>gini = 0.022<br/>samples = 88<br/>value = [1, 87]<br/>class = cavallo>, fillcolor="#3b9ee5"] ;
609 -> 611 ;
612 [label=<gini = 0.0<br/>samples = 1<br/>value = [1, 0]<br/>class = cane>, fillcolor="#e58139"] ;
611 -> 612 ;
613 [label=<gini = 0.0<br/>samples = 87<br/>value = [0, 87]<br/>class = cavallo>, fillcolor="#399de5"] ;
611 -> 613 ;
614 [label=<X<SUB>31543</SUB> &le; 0.659<br/>gini = 0.48<br/>samples = 20<br/>value = [12, 8]<br/>class = cane>, fillcolor="#f6d5bd"] ;
604 -> 614 ;
615 [label=<gini = 0.0<br/>samples = 12<br/>value = [12, 0]<br/>class = cane>, fillcolor="#e58139"] ;
614 -> 615 ;
616 [label=<gini = 0.0<br/>samples = 8<br/>value = [0, 8]<br/>class = cavallo>, fillcolor="#399de5"] ;
614 -> 616 ;
617 [label=<gini = 0.0<br/>samples = 12<br/>value = [12, 0]<br/>class = cane>, fillcolor="#e58139"] ;
603 -> 617 ;
618 [label=<X<SUB>23022</SUB> &le; 0.736<br/>gini = 0.35<br/>samples = 561<br/>value = [434, 127]<br/>class = cane>, fillcolor="#eda673"] ;
506 -> 618 ;
619 [label=<X<SUB>55057</SUB> &le; 0.624<br/>gini = 0.496<br/>samples = 185<br/>value = [101, 84]<br/>class = cane>, fillcolor="#fbeade"] ;
618 -> 619 ;
620 [label=<X<SUB>11323</SUB> &le; 0.77<br/>gini = 0.356<br/>samples = 95<br/>value = [73, 22]<br/>class = cane>, fillcolor="#eda775"] ;
619 -> 620 ;
621 [label=<X<SUB>44381</SUB> &le; 0.884<br/>gini = 0.14<br/>samples = 66<br/>value = [61, 5]<br/>class = cane>, fillcolor="#e78b49"] ;
620 -> 621 ;
622 [label=<X<SUB>9990</SUB> &le; 0.078<br/>gini = 0.061<br/>samples = 63<br/>value = [61, 2]<br/>class = cane>, fillcolor="#e6853f"] ;
621 -> 622 ;
623 [label=<gini = 0.0<br/>samples = 2<br/>value = [0, 2]<br/>class = cavallo>, fillcolor="#399de5"] ;
622 -> 623 ;
624 [label=<gini = 0.0<br/>samples = 61<br/>value = [61, 0]<br/>class = cane>, fillcolor="#e58139"] ;
622 -> 624 ;
625 [label=<gini = 0.0<br/>samples = 3<br/>value = [0, 3]<br/>class = cavallo>, fillcolor="#399de5"] ;
621 -> 625 ;
626 [label=<X<SUB>20487</SUB> &le; 0.462<br/>gini = 0.485<br/>samples = 29<br/>value = [12, 17]<br/>class = cavallo>, fillcolor="#c5e2f7"] ;
620 -> 626 ;
627 [label=<X<SUB>39094</SUB> &le; 0.272<br/>gini = 0.188<br/>samples = 19<br/>value = [2, 17]<br/>class = cavallo>, fillcolor="#50a9e8"] ;
626 -> 627 ;
628 [label=<gini = 0.0<br/>samples = 2<br/>value = [2, 0]<br/>class = cane>, fillcolor="#e58139"] ;
627 -> 628 ;
629 [label=<gini = 0.0<br/>samples = 17<br/>value = [0, 17]<br/>class = cavallo>, fillcolor="#399de5"] ;
627 -> 629 ;
630 [label=<gini = 0.0<br/>samples = 10<br/>value = [10, 0]<br/>class = cane>, fillcolor="#e58139"] ;
626 -> 630 ;
631 [label=<X<SUB>7122</SUB> &le; 0.914<br/>gini = 0.429<br/>samples = 90<br/>value = [28, 62]<br/>class = cavallo>, fillcolor="#92c9f1"] ;
619 -> 631 ;
632 [label=<X<SUB>64157</SUB> &le; 0.943<br/>gini = 0.168<br/>samples = 54<br/>value = [5, 49]<br/>class = cavallo>, fillcolor="#4da7e8"] ;
631 -> 632 ;
633 [label=<gini = 0.0<br/>samples = 47<br/>value = [0, 47]<br/>class = cavallo>, fillcolor="#399de5"] ;
632 -> 633 ;
634 [label=<X<SUB>46907</SUB> &le; 0.974<br/>gini = 0.408<br/>samples = 7<br/>value = [5, 2]<br/>class = cane>, fillcolor="#efb388"] ;
632 -> 634 ;
635 [label=<gini = 0.0<br/>samples = 5<br/>value = [5, 0]<br/>class = cane>, fillcolor="#e58139"] ;
634 -> 635 ;
636 [label=<gini = 0.0<br/>samples = 2<br/>value = [0, 2]<br/>class = cavallo>, fillcolor="#399de5"] ;
634 -> 636 ;
637 [label=<X<SUB>24366</SUB> &le; 0.386<br/>gini = 0.461<br/>samples = 36<br/>value = [23, 13]<br/>class = cane>, fillcolor="#f4c8a9"] ;
631 -> 637 ;
638 [label=<X<SUB>12526</SUB> &le; 0.817<br/>gini = 0.278<br/>samples = 12<br/>value = [2, 10]<br/>class = cavallo>, fillcolor="#61b1ea"] ;
637 -> 638 ;
639 [label=<gini = 0.0<br/>samples = 2<br/>value = [2, 0]<br/>class = cane>, fillcolor="#e58139"] ;
638 -> 639 ;
640 [label=<gini = 0.0<br/>samples = 10<br/>value = [0, 10]<br/>class = cavallo>, fillcolor="#399de5"] ;
638 -> 640 ;
641 [label=<X<SUB>35508</SUB> &le; 0.989<br/>gini = 0.219<br/>samples = 24<br/>value = [21, 3]<br/>class = cane>, fillcolor="#e99355"] ;
637 -> 641 ;
642 [label=<gini = 0.0<br/>samples = 21<br/>value = [21, 0]<br/>class = cane>, fillcolor="#e58139"] ;
641 -> 642 ;
643 [label=<gini = 0.0<br/>samples = 3<br/>value = [0, 3]<br/>class = cavallo>, fillcolor="#399de5"] ;
641 -> 643 ;
644 [label=<X<SUB>47211</SUB> &le; 0.45<br/>gini = 0.203<br/>samples = 376<br/>value = [333, 43]<br/>class = cane>, fillcolor="#e89153"] ;
618 -> 644 ;
645 [label=<X<SUB>50313</SUB> &le; 0.246<br/>gini = 0.375<br/>samples = 16<br/>value = [4, 12]<br/>class = cavallo>, fillcolor="#7bbeee"] ;
644 -> 645 ;
646 [label=<gini = 0.0<br/>samples = 4<br/>value = [4, 0]<br/>class = cane>, fillcolor="#e58139"] ;
645 -> 646 ;
647 [label=<gini = 0.0<br/>samples = 12<br/>value = [0, 12]<br/>class = cavallo>, fillcolor="#399de5"] ;
645 -> 647 ;
648 [label=<X<SUB>37418</SUB> &le; 0.043<br/>gini = 0.157<br/>samples = 360<br/>value = [329, 31]<br/>class = cane>, fillcolor="#e78d4c"] ;
644 -> 648 ;
649 [label=<gini = 0.0<br/>samples = 5<br/>value = [0, 5]<br/>class = cavallo>, fillcolor="#399de5"] ;
648 -> 649 ;
650 [label=<X<SUB>33698</SUB> &le; 0.141<br/>gini = 0.136<br/>samples = 355<br/>value = [329, 26]<br/>class = cane>, fillcolor="#e78b49"] ;
648 -> 650 ;
651 [label=<X<SUB>17625</SUB> &le; 0.972<br/>gini = 0.278<br/>samples = 6<br/>value = [1, 5]<br/>class = cavallo>, fillcolor="#61b1ea"] ;
650 -> 651 ;
652 [label=<gini = 0.0<br/>samples = 5<br/>value = [0, 5]<br/>class = cavallo>, fillcolor="#399de5"] ;
651 -> 652 ;
653 [label=<gini = 0.0<br/>samples = 1<br/>value = [1, 0]<br/>class = cane>, fillcolor="#e58139"] ;
651 -> 653 ;
654 [label=<X<SUB>55111</SUB> &le; 0.99<br/>gini = 0.113<br/>samples = 349<br/>value = [328, 21]<br/>class = cane>, fillcolor="#e78946"] ;
650 -> 654 ;
655 [label=<X<SUB>21102</SUB> &le; 0.187<br/>gini = 0.094<br/>samples = 344<br/>value = [327, 17]<br/>class = cane>, fillcolor="#e68843"] ;
654 -> 655 ;
656 [label=<X<SUB>58546</SUB> &le; 0.994<br/>gini = 0.375<br/>samples = 4<br/>value = [1, 3]<br/>class = cavallo>, fillcolor="#7bbeee"] ;
655 -> 656 ;
657 [label=<gini = 0.0<br/>samples = 3<br/>value = [0, 3]<br/>class = cavallo>, fillcolor="#399de5"] ;
656 -> 657 ;
658 [label=<gini = 0.0<br/>samples = 1<br/>value = [1, 0]<br/>class = cane>, fillcolor="#e58139"] ;
656 -> 658 ;
659 [label=<X<SUB>15928</SUB> &le; 0.028<br/>gini = 0.079<br/>samples = 340<br/>value = [326, 14]<br/>class = cane>, fillcolor="#e68642"] ;
655 -> 659 ;
660 [label=<gini = 0.0<br/>samples = 2<br/>value = [0, 2]<br/>class = cavallo>, fillcolor="#399de5"] ;
659 -> 660 ;
661 [label=<X<SUB>9617</SUB> &le; 0.996<br/>gini = 0.068<br/>samples = 338<br/>value = [326, 12]<br/>class = cane>, fillcolor="#e68640"] ;
659 -> 661 ;
662 [label=<X<SUB>17305</SUB> &le; 0.991<br/>gini = 0.058<br/>samples = 336<br/>value = [326, 10]<br/>class = cane>, fillcolor="#e6853f"] ;
661 -> 662 ;
663 [label=<X<SUB>59968</SUB> &le; 0.993<br/>gini = 0.047<br/>samples = 334<br/>value = [326, 8]<br/>class = cane>, fillcolor="#e6843e"] ;
662 -> 663 ;
664 [label=<X<SUB>49691</SUB> &le; 0.995<br/>gini = 0.035<br/>samples = 332<br/>value = [326, 6]<br/>class = cane>, fillcolor="#e5833d"] ;
663 -> 664 ;
665 [label=<X<SUB>42665</SUB> &le; 0.0<br/>gini = 0.024<br/>samples = 329<br/>value = [325, 4]<br/>class = cane>, fillcolor="#e5833b"] ;
664 -> 665 ;
666 [label=<gini = 0.0<br/>samples = 1<br/>value = [0, 1]<br/>class = cavallo>, fillcolor="#399de5"] ;
665 -> 666 ;
667 [label=<X<SUB>11614</SUB> &le; 0.063<br/>gini = 0.018<br/>samples = 328<br/>value = [325, 3]<br/>class = cane>, fillcolor="#e5823b"] ;
665 -> 667 ;
668 [label=<gini = 0.0<br/>samples = 1<br/>value = [0, 1]<br/>class = cavallo>, fillcolor="#399de5"] ;
667 -> 668 ;
669 [label=<X<SUB>16715</SUB> &le; 0.021<br/>gini = 0.012<br/>samples = 327<br/>value = [325, 2]<br/>class = cane>, fillcolor="#e5823a"] ;
667 -> 669 ;
670 [label=<gini = 0.0<br/>samples = 1<br/>value = [0, 1]<br/>class = cavallo>, fillcolor="#399de5"] ;
669 -> 670 ;
671 [label=<X<SUB>38393</SUB> &le; 0.995<br/>gini = 0.006<br/>samples = 326<br/>value = [325, 1]<br/>class = cane>, fillcolor="#e5813a"] ;
669 -> 671 ;
672 [label=<gini = 0.0<br/>samples = 324<br/>value = [324, 0]<br/>class = cane>, fillcolor="#e58139"] ;
671 -> 672 ;
673 [label=<X<SUB>46612</SUB> &le; 0.49<br/>gini = 0.5<br/>samples = 2<br/>value = [1, 1]<br/>class = cane>, fillcolor="#ffffff"] ;
671 -> 673 ;
674 [label=<gini = 0.0<br/>samples = 1<br/>value = [1, 0]<br/>class = cane>, fillcolor="#e58139"] ;
673 -> 674 ;
675 [label=<gini = 0.0<br/>samples = 1<br/>value = [0, 1]<br/>class = cavallo>, fillcolor="#399de5"] ;
673 -> 675 ;
676 [label=<X<SUB>17916</SUB> &le; 0.834<br/>gini = 0.444<br/>samples = 3<br/>value = [1, 2]<br/>class = cavallo>, fillcolor="#9ccef2"] ;
664 -> 676 ;
677 [label=<gini = 0.0<br/>samples = 2<br/>value = [0, 2]<br/>class = cavallo>, fillcolor="#399de5"] ;
676 -> 677 ;
678 [label=<gini = 0.0<br/>samples = 1<br/>value = [1, 0]<br/>class = cane>, fillcolor="#e58139"] ;
676 -> 678 ;
679 [label=<gini = 0.0<br/>samples = 2<br/>value = [0, 2]<br/>class = cavallo>, fillcolor="#399de5"] ;
663 -> 679 ;
680 [label=<gini = 0.0<br/>samples = 2<br/>value = [0, 2]<br/>class = cavallo>, fillcolor="#399de5"] ;
662 -> 680 ;
681 [label=<gini = 0.0<br/>samples = 2<br/>value = [0, 2]<br/>class = cavallo>, fillcolor="#399de5"] ;
661 -> 681 ;
682 [label=<X<SUB>30171</SUB> &le; 0.992<br/>gini = 0.32<br/>samples = 5<br/>value = [1, 4]<br/>class = cavallo>, fillcolor="#6ab6ec"] ;
654 -> 682 ;
683 [label=<gini = 0.0<br/>samples = 4<br/>value = [0, 4]<br/>class = cavallo>, fillcolor="#399de5"] ;
682 -> 683 ;
684 [label=<gini = 0.0<br/>samples = 1<br/>value = [1, 0]<br/>class = cane>, fillcolor="#e58139"] ;
682 -> 684 ;
}